svm_type c_svc
kernel_type precomputed
nr_class 2
total_sv 2491
rho 0.409
label 1 -1
probA -2.27538
probB -0.0901799
nr_sv 1232 1259
SV
1 0:6 
0.9792422512072513 0:7 
1 0:9 
1 0:15 
0.1880529357456862 0:16 
0.936971143172001 0:24 
1 0:28 
0.5480322741008981 0:31 
1 0:35 
1 0:36 
1 0:38 
1 0:43 
1 0:44 
1 0:52 
1 0:53 
0.8966654202710829 0:54 
1 0:60 
0.9204118460273666 0:62 
1 0:63 
0.3869557487444393 0:69 
0.00746131442638002 0:71 
1 0:74 
1 0:76 
0.1111825541284645 0:79 
0.2947363712851954 0:83 
0.4907932865231523 0:90 
0.631598555068732 0:92 
1 0:95 
1 0:96 
1 0:102 
1 0:107 
1 0:109 
1 0:110 
1 0:112 
1 0:113 
0.2186195825724686 0:123 
0.6913906032204951 0:125 
1 0:128 
1 0:130 
1 0:131 
0.2493784995379713 0:136 
0.1150000299738609 0:140 
1 0:142 
1 0:144 
0.3143367108273376 0:157 
1 0:166 
1 0:168 
1 0:176 
1 0:177 
0.1207174272715123 0:179 
1 0:182 
1 0:186 
1 0:188 
1 0:194 
1 0:196 
1 0:197 
1 0:198 
1 0:200 
1 0:204 
1 0:209 
1 0:212 
1 0:213 
0.0861235769543241 0:218 
1 0:219 
1 0:221 
1 0:223 
1 0:224 
1 0:225 
0.5911204877641646 0:240 
1 0:244 
1 0:245 
1 0:247 
1 0:248 
1 0:249 
1 0:258 
1 0:260 
1 0:273 
1 0:275 
0.0686699799001152 0:279 
1 0:283 
1 0:289 
1 0:298 
1 0:301 
0.568150157821652 0:302 
1 0:303 
1 0:307 
1 0:310 
1 0:314 
1 0:317 
0.06771068059349263 0:320 
1 0:324 
1 0:325 
1 0:328 
1 0:331 
1 0:335 
0.4911370492278169 0:336 
0.5354295322375976 0:340 
0.4568330054286544 0:359 
1 0:363 
0.3321396914262079 0:365 
1 0:368 
1 0:370 
1 0:371 
1 0:372 
1 0:385 
1 0:389 
1 0:392 
1 0:394 
1 0:395 
1 0:396 
1 0:397 
1 0:403 
1 0:411 
1 0:413 
0.7325200623664243 0:414 
1 0:415 
1 0:417 
1 0:420 
1 0:421 
1 0:426 
1 0:434 
0.4435396457552687 0:435 
1 0:438 
1 0:439 
1 0:442 
0.2037242341510678 0:443 
1 0:448 
1 0:451 
1 0:455 
1 0:459 
1 0:461 
1 0:463 
0.2512592145210977 0:464 
1 0:469 
1 0:470 
1 0:473 
0.1101295483736943 0:482 
1 0:484 
1 0:486 
0.9674612046884975 0:495 
1 0:497 
0.5809145378465332 0:498 
1 0:504 
1 0:509 
0.8924228961617974 0:511 
0.8135514778675265 0:514 
1 0:516 
1 0:518 
1 0:519 
1 0:526 
1 0:527 
1 0:528 
1 0:529 
0.3631221208817257 0:530 
1 0:531 
0.9815315369488368 0:532 
1 0:537 
1 0:538 
1 0:539 
0.92679478390488 0:543 
0.7751172361070516 0:546 
1 0:547 
1 0:549 
1 0:551 
1 0:556 
1 0:562 
0.07958166790188531 0:570 
0.720364370844545 0:572 
1 0:573 
0.2196909174654334 0:580 
1 0:582 
1 0:583 
1 0:588 
1 0:589 
1 0:605 
1 0:609 
1 0:611 
0.1793226702383288 0:615 
1 0:621 
1 0:622 
1 0:627 
0.4355774795901445 0:631 
1 0:634 
0.6733204561923769 0:640 
1 0:644 
0.8200182711418302 0:646 
1 0:648 
1 0:649 
1 0:656 
1 0:661 
1 0:674 
1 0:681 
1 0:683 
1 0:688 
1 0:689 
0.3560406728364582 0:694 
1 0:698 
0.7552390304263999 0:701 
1 0:707 
1 0:709 
1 0:710 
1 0:711 
0.8080629966353076 0:712 
0.7343572249516689 0:715 
1 0:720 
1 0:721 
1 0:724 
1 0:727 
1 0:729 
1 0:730 
1 0:732 
1 0:733 
1 0:734 
1 0:738 
1 0:743 
1 0:749 
0.8173746413668461 0:754 
1 0:762 
0.960238917049731 0:765 
1 0:768 
1 0:769 
0.6408236272879281 0:771 
1 0:772 
1 0:779 
0.475334454828217 0:783 
1 0:784 
1 0:791 
0.3494937452175465 0:792 
1 0:798 
0.3694353177203901 0:803 
1 0:804 
1 0:808 
1 0:809 
1 0:810 
1 0:815 
1 0:819 
0.4751690690659952 0:829 
1 0:830 
1 0:831 
1 0:835 
1 0:837 
0.4335552758750802 0:840 
1 0:846 
1 0:847 
0.5166609157752299 0:851 
1 0:852 
1 0:856 
1 0:858 
0.2599672251990736 0:859 
1 0:872 
1 0:873 
1 0:877 
1 0:878 
1 0:880 
1 0:888 
1 0:890 
1 0:897 
1 0:905 
1 0:910 
1 0:919 
1 0:921 
0.5608893286304456 0:922 
1 0:923 
0.1258018489228813 0:938 
1 0:939 
1 0:942 
1 0:943 
1 0:944 
1 0:948 
1 0:951 
1 0:956 
1 0:958 
1 0:961 
1 0:967 
0.9057546604251344 0:969 
1 0:974 
1 0:975 
1 0:978 
0.005592345283868512 0:982 
1 0:984 
0.8217591315213473 0:987 
1 0:995 
1 0:996 
1 0:997 
1 0:998 
1 0:1001 
1 0:1002 
1 0:1011 
1 0:1016 
1 0:1017 
1 0:1025 
0.007457081370427636 0:1029 
0.7308444759612551 0:1031 
0.7702927539344075 0:1036 
1 0:1044 
1 0:1048 
1 0:1054 
1 0:1056 
1 0:1059 
1 0:1060 
1 0:1061 
1 0:1062 
1 0:1063 
1 0:1067 
1 0:1069 
0.04638154115023153 0:1070 
1 0:1073 
1 0:1076 
1 0:1083 
1 0:1085 
1 0:1091 
1 0:1093 
0.08830198216171678 0:1094 
1 0:1095 
1 0:1097 
1 0:1103 
1 0:1104 
1 0:1106 
1 0:1108 
1 0:1109 
1 0:1111 
1 0:1112 
1 0:1113 
1 0:1117 
1 0:1120 
1 0:1124 
1 0:1128 
0.3379082243865858 0:1129 
1 0:1132 
0.3289172643262686 0:1134 
1 0:1136 
1 0:1139 
0.1387577681321185 0:1143 
1 0:1147 
0.4568098311380688 0:1151 
1 0:1155 
0.7669690366744929 0:1161 
1 0:1163 
1 0:1171 
1 0:1180 
1 0:1181 
0.4415897525916586 0:1182 
1 0:1186 
1 0:1187 
1 0:1190 
1 0:1191 
0.9716830998300406 0:1192 
1 0:1193 
0.405559126969343 0:1195 
1 0:1196 
1 0:1197 
1 0:1203 
1 0:1208 
1 0:1211 
1 0:1221 
0.7268130058363129 0:1223 
1 0:1224 
0.1350499031011011 0:1225 
0.003807483611125164 0:1227 
0.3860145878042119 0:1229 
1 0:1232 
1 0:1234 
1 0:1237 
0.1119864239802585 0:1239 
1 0:1240 
0.7906277686402539 0:1242 
1 0:1243 
1 0:1244 
1 0:1246 
1 0:1248 
0.5042829041535545 0:1251 
1 0:1255 
1 0:1258 
1 0:1259 
1 0:1264 
1 0:1269 
0.1617104097836432 0:1271 
1 0:1272 
1 0:1274 
1 0:1281 
1 0:1283 
1 0:1284 
1 0:1285 
1 0:1294 
1 0:1295 
1 0:1297 
1 0:1299 
1 0:1302 
1 0:1310 
1 0:1311 
1 0:1312 
0.1878879511457509 0:1318 
1 0:1319 
1 0:1324 
0.4104134429048176 0:1326 
1 0:1333 
1 0:1335 
0.2328639987172928 0:1337 
1 0:1342 
0.7862255536037881 0:1343 
1 0:1350 
1 0:1352 
1 0:1354 
0.1877127717977258 0:1360 
0.2167299335693013 0:1361 
1 0:1364 
1 0:1365 
1 0:1368 
1 0:1371 
0.7569305250901507 0:1374 
1 0:1375 
1 0:1379 
1 0:1385 
1 0:1392 
1 0:1393 
0.2747028213300505 0:1394 
0.06180088162695468 0:1398 
0.3864465890525289 0:1412 
1 0:1415 
0.9948301167706334 0:1416 
0.7014542849368545 0:1417 
0.2608503466986098 0:1426 
1 0:1434 
0.4566894433324517 0:1437 
1 0:1447 
0.00470091151925415 0:1451 
0.3703174979116419 0:1452 
0.09280939791538435 0:1460 
0.7242515891965783 0:1461 
1 0:1462 
1 0:1465 
1 0:1466 
1 0:1472 
0.5165775716768544 0:1476 
1 0:1479 
1 0:1488 
0.3216837516764093 0:1494 
1 0:1497 
1 0:1502 
0.4672939145749569 0:1506 
1 0:1510 
0.1447907304300382 0:1511 
0.1001483656293503 0:1512 
1 0:1516 
0.04749645885391586 0:1517 
0.01990925117133105 0:1519 
1 0:1526 
0.190924807208515 0:1527 
1 0:1534 
1 0:1539 
1 0:1541 
1 0:1545 
1 0:1551 
1 0:1553 
1 0:1554 
1 0:1555 
1 0:1557 
0.2766681859001617 0:1562 
0.8390862264099467 0:1566 
1 0:1569 
1 0:1571 
1 0:1573 
1 0:1575 
1 0:1577 
0.5457591917166293 0:1593 
0.1448751874981167 0:1599 
1 0:1602 
1 0:1604 
0.3249842163663346 0:1611 
0.9729717809475625 0:1612 
1 0:1613 
1 0:1615 
1 0:1620 
0.1452196291913886 0:1621 
1 0:1623 
1 0:1625 
1 0:1638 
1 0:1639 
1 0:1641 
1 0:1646 
1 0:1647 
1 0:1648 
1 0:1649 
0.7742788612406274 0:1656 
1 0:1658 
1 0:1663 
0.9084160037160511 0:1666 
1 0:1668 
1 0:1669 
1 0:1672 
1 0:1673 
1 0:1677 
1 0:1679 
1 0:1681 
1 0:1683 
0.1113215349187145 0:1686 
1 0:1687 
1 0:1689 
1 0:1691 
0.3319164447297458 0:1697 
1 0:1701 
1 0:1703 
0.644615908586844 0:1704 
1 0:1712 
0.07762240466225855 0:1714 
1 0:1721 
1 0:1724 
1 0:1725 
0.115677438188588 0:1733 
0.5988505793013481 0:1735 
0.336922190886961 0:1740 
0.8886789182350908 0:1745 
1 0:1746 
1 0:1753 
1 0:1757 
0.0621421068154931 0:1758 
1 0:1762 
0.2682295156747329 0:1765 
1 0:1768 
1 0:1771 
1 0:1772 
0.4358052948823598 0:1778 
1 0:1780 
1 0:1781 
1 0:1784 
0.8209458622959835 0:1786 
0.1238072558756082 0:1789 
1 0:1791 
1 0:1793 
1 0:1796 
1 0:1797 
1 0:1799 
1 0:1802 
0.3943564134543139 0:1803 
1 0:1808 
1 0:1810 
0.05451211106703224 0:1811 
1 0:1812 
1 0:1814 
1 0:1816 
0.8123602922716588 0:1817 
1 0:1842 
1 0:1843 
1 0:1853 
0.8895695057000197 0:1855 
1 0:1859 
1 0:1863 
1 0:1865 
0.506934736679058 0:1868 
1 0:1869 
1 0:1879 
1 0:1882 
0.6444238949730606 0:1902 
1 0:1906 
0.1936311706432745 0:1909 
1 0:1910 
0.6375567633128554 0:1911 
0.09823384306341425 0:1912 
1 0:1916 
1 0:1917 
0.6199697578985979 0:1918 
1 0:1927 
0.962813387030647 0:1928 
0.7946787043726591 0:1930 
1 0:1935 
1 0:1942 
1 0:1943 
1 0:1944 
1 0:1946 
0.9528879885325693 0:1950 
0.4306223507777281 0:1952 
1 0:1963 
1 0:1967 
1 0:1972 
1 0:1973 
0.8962752358571994 0:1974 
0.9495871022195637 0:1979 
1 0:1981 
1 0:1986 
0.8269285046705741 0:1987 
1 0:1988 
1 0:1989 
1 0:1991 
1 0:1992 
1 0:1999 
1 0:2004 
1 0:2005 
1 0:2009 
1 0:2013 
1 0:2019 
1 0:2021 
0.5883389787252229 0:2024 
1 0:2025 
1 0:2029 
0.9440080239994353 0:2034 
0.9637419765421147 0:2036 
0.09227575150959184 0:2040 
1 0:2043 
1 0:2044 
1 0:2045 
1 0:2049 
1 0:2058 
1 0:2068 
1 0:2070 
1 0:2080 
1 0:2089 
1 0:2092 
1 0:2093 
0.9143538687322312 0:2094 
1 0:2095 
1 0:2096 
1 0:2097 
1 0:2101 
1 0:2102 
1 0:2104 
1 0:2105 
0.9877864003674487 0:2111 
0.4996046398701257 0:2116 
1 0:2118 
1 0:2119 
1 0:2125 
1 0:2126 
1 0:2131 
1 0:2134 
1 0:2135 
0.4437453621286399 0:2136 
1 0:2142 
1 0:2144 
1 0:2145 
0.3245047260625744 0:2150 
1 0:2155 
0.485011026978254 0:2158 
0.8541884022482904 0:2162 
1 0:2163 
1 0:2172 
1 0:2173 
1 0:2178 
1 0:2180 
0.8133657640810279 0:2181 
1 0:2183 
1 0:2184 
1 0:2186 
1 0:2187 
1 0:2188 
1 0:2191 
1 0:2193 
0.07846270105609343 0:2198 
1 0:2202 
1 0:2210 
1 0:2211 
1 0:2216 
1 0:2219 
1 0:2223 
1 0:2225 
1 0:2226 
1 0:2228 
1 0:2234 
1 0:2240 
1 0:2243 
1 0:2246 
1 0:2249 
0.8973889145285966 0:2251 
1 0:2253 
1 0:2255 
0.550847295359689 0:2258 
0.926198386752322 0:2259 
1 0:2263 
1 0:2264 
0.7465162807991678 0:2267 
1 0:2271 
1 0:2275 
1 0:2277 
1 0:2279 
1 0:2283 
1 0:2284 
1 0:2285 
1 0:2289 
0.1220925006358985 0:2291 
1 0:2294 
1 0:2296 
1 0:2299 
1 0:2301 
1 0:2304 
1 0:2306 
1 0:2310 
1 0:2311 
0.4234657680283449 0:2324 
1 0:2329 
1 0:2330 
1 0:2338 
1 0:2339 
1 0:2341 
1 0:2347 
1 0:2349 
1 0:2350 
1 0:2351 
1 0:2353 
1 0:2361 
1 0:2362 
0.2754644483127266 0:2366 
1 0:2368 
1 0:2377 
0.8520900390516525 0:2387 
1 0:2392 
0.7531468705958849 0:2394 
1 0:2398 
0.6826300712997958 0:2401 
1 0:2403 
1 0:2409 
0.6326326564809189 0:2411 
0.05334978350084286 0:2412 
1 0:2413 
1 0:2415 
1 0:2418 
1 0:2420 
1 0:2421 
0.7113195150794254 0:2422 
1 0:2428 
0.1116796556524991 0:2430 
1 0:2433 
1 0:2434 
1 0:2437 
0.4020974107813138 0:2441 
1 0:2442 
1 0:2443 
0.8742004850089405 0:2444 
1 0:2445 
1 0:2448 
0.09099924623105236 0:2458 
0.1303497799093491 0:2459 
0.05572738389642149 0:2464 
0.5259099095465967 0:2466 
1 0:2467 
0.6037857003989722 0:2469 
0.8810985754387936 0:2471 
1 0:2475 
1 0:2485 
1 0:2489 
1 0:2491 
1 0:2494 
0.6705397898976537 0:2496 
1 0:2501 
1 0:2502 
1 0:2509 
0.1920819867913077 0:2511 
1 0:2516 
0.1570388984712596 0:2517 
1 0:2518 
1 0:2520 
1 0:2523 
1 0:2526 
1 0:2529 
1 0:2534 
1 0:2536 
1 0:2537 
1 0:2541 
1 0:2544 
1 0:2546 
1 0:2553 
1 0:2555 
0.454302453378995 0:2556 
1 0:2558 
1 0:2559 
0.2972850881239612 0:2560 
1 0:2568 
1 0:2569 
1 0:2575 
1 0:2576 
1 0:2580 
0.3697753211208082 0:2582 
0.9495750769637383 0:2583 
1 0:2594 
0.07246288536911329 0:2595 
1 0:2599 
0.8819306507036411 0:2601 
1 0:2602 
0.667097415336145 0:2603 
1 0:2605 
0.3926629301615392 0:2606 
0.8057693181600127 0:2608 
1 0:2612 
1 0:2615 
1 0:2619 
1 0:2621 
1 0:2624 
1 0:2628 
0.4649835175422735 0:2631 
0.1186009985032416 0:2634 
1 0:2636 
1 0:2637 
1 0:2638 
1 0:2641 
1 0:2646 
0.6096966635635404 0:2653 
1 0:2663 
1 0:2665 
1 0:2667 
1 0:2670 
1 0:2671 
1 0:2673 
0.3208630576865132 0:2679 
1 0:2681 
0.2281420156303486 0:2683 
1 0:2684 
1 0:2694 
0.6753489078621936 0:2695 
1 0:2697 
0.5774791333818615 0:2698 
1 0:2699 
1 0:2701 
1 0:2703 
1 0:2705 
1 0:2723 
1 0:2726 
1 0:2733 
1 0:2736 
0.1662601992764402 0:2738 
1 0:2748 
1 0:2755 
1 0:2757 
1 0:2764 
1 0:2766 
1 0:2769 
0.05543213315029035 0:2775 
1 0:2776 
1 0:2782 
0.7692087451343212 0:2783 
1 0:2786 
1 0:2800 
1 0:2802 
1 0:2805 
0.4424067016675305 0:2807 
1 0:2810 
1 0:2811 
1 0:2814 
0.5204284975422167 0:2818 
1 0:2823 
1 0:2829 
0.4535114439491277 0:2833 
0.4355916538343076 0:2835 
0.05455834789227457 0:2839 
0.8501310148221936 0:2840 
1 0:2843 
0.7357850550637274 0:2856 
1 0:2857 
0.4647296664002138 0:2859 
1 0:2861 
0.638880945277845 0:2863 
1 0:2883 
1 0:2893 
1 0:2898 
1 0:2899 
1 0:2901 
1 0:2902 
1 0:2905 
1 0:2910 
1 0:2917 
1 0:2919 
0.5937896459761225 0:2920 
1 0:2924 
0.4199032374367529 0:2929 
1 0:2930 
1 0:2934 
0.9062069384669732 0:2937 
1 0:2939 
1 0:2942 
0.2819418028941175 0:2946 
0.2208208448035946 0:2947 
1 0:2953 
1 0:2954 
0.8162301674800927 0:2956 
1 0:2959 
0.7899457973947501 0:2965 
1 0:2966 
1 0:2969 
0.5142864672212339 0:2980 
1 0:2988 
1 0:2991 
0.5024514247026323 0:2996 
1 0:3000 
1 0:3002 
1 0:3003 
0.9956328968161489 0:3006 
1 0:3011 
1 0:3015 
1 0:3019 
1 0:3020 
1 0:3021 
0.06749536962070302 0:3022 
0.1951477494969759 0:3023 
1 0:3032 
0.3015642594515592 0:3037 
1 0:3041 
0.6722645835270864 0:3043 
1 0:3044 
1 0:3045 
0.6484458926072288 0:3048 
1 0:3052 
1 0:3056 
1 0:3061 
1 0:3066 
1 0:3068 
1 0:3069 
0.01924513840236603 0:3072 
1 0:3075 
1 0:3090 
1 0:3093 
0.6671796170719173 0:3095 
1 0:3096 
1 0:3102 
1 0:3108 
1 0:3111 
1 0:3113 
1 0:3114 
1 0:3115 
0.1119435987027345 0:3117 
1 0:3120 
1 0:3125 
1 0:3130 
1 0:3134 
1 0:3135 
1 0:3137 
1 0:3139 
1 0:3140 
1 0:3149 
1 0:3150 
1 0:3152 
0.2443185767078528 0:3157 
1 0:3160 
1 0:3165 
1 0:3170 
0.5203970596728121 0:3171 
1 0:3173 
1 0:3176 
0.9720832057482059 0:3177 
0.06255597106109227 0:3179 
1 0:3183 
0.3923911575928573 0:3188 
1 0:3193 
1 0:3194 
1 0:3197 
1 0:3200 
1 0:3205 
1 0:3206 
1 0:3207 
1 0:3208 
1 0:3209 
0.6353723475174071 0:3212 
1 0:3216 
0.5752982335357497 0:3218 
1 0:3219 
0.3943277864307072 0:3226 
1 0:3229 
0.03447683194430042 0:3232 
0.5458237930123802 0:3234 
1 0:3243 
1 0:3247 
1 0:3251 
1 0:3257 
1 0:3259 
1 0:3261 
0.3373379654455538 0:3262 
0.6152830058735114 0:3264 
0.4609437621648336 0:3266 
1 0:3268 
1 0:3271 
1 0:3273 
1 0:3277 
1 0:3284 
1 0:3285 
1 0:3290 
1 0:3291 
1 0:3294 
1 0:3295 
1 0:3304 
1 0:3307 
0.1990311040152923 0:3308 
0.3127109769032388 0:3309 
1 0:3314 
1 0:3320 
1 0:3321 
1 0:3322 
1 0:3327 
1 0:3329 
0.4802146619602543 0:3333 
0.1587797980380798 0:3339 
1 0:3341 
1 0:3344 
1 0:3347 
1 0:3350 
0.5560275082561229 0:3355 
1 0:3358 
1 0:3360 
1 0:3363 
1 0:3364 
1 0:3365 
1 0:3368 
1 0:3373 
1 0:3375 
1 0:3376 
1 0:3377 
1 0:3380 
1 0:3383 
1 0:3384 
0.6914908473525321 0:3385 
0.8863288319850402 0:3389 
1 0:3394 
0.8888627694931296 0:3395 
1 0:3403 
0.5500145395029444 0:3408 
1 0:3409 
0.8613901505389934 0:3410 
0.4937254883256805 0:3411 
0.3541831451236408 0:3421 
1 0:3422 
1 0:3423 
0.8651909185920414 0:3424 
1 0:3426 
1 0:3429 
1 0:3432 
1 0:3434 
0.5850165762073845 0:3436 
0.2657712300966006 0:3439 
1 0:3442 
1 0:3443 
1 0:3444 
1 0:3445 
1 0:3454 
0.8295164694463016 0:3455 
1 0:3459 
1 0:3470 
1 0:3473 
1 0:3475 
1 0:3478 
0.6658257851224362 0:3480 
0.3560859646021231 0:3481 
1 0:3483 
0.5051012799081539 0:3484 
1 0:3487 
1 0:3489 
1 0:3490 
1 0:3491 
1 0:3492 
1 0:3494 
0.7080802423368364 0:3495 
0.07016729380490304 0:3496 
1 0:3497 
0.04752014673468458 0:3498 
1 0:3500 
0.2351859647478562 0:3504 
0.7945118017681203 0:3507 
0.5194296440314939 0:3510 
1 0:3515 
1 0:3519 
0.1187867729583674 0:3522 
1 0:3524 
1 0:3530 
1 0:3531 
1 0:3533 
1 0:3537 
0.02871847169295674 0:3540 
1 0:3542 
1 0:3543 
1 0:3545 
0.02230749229924222 0:3550 
1 0:3559 
0.9276306100896715 0:3567 
1 0:3568 
1 0:3571 
0.7436371202688561 0:3577 
1 0:3581 
0.5468435024773121 0:3592 
0.5428511281759086 0:3593 
1 0:3594 
0.5170727444702231 0:3597 
1 0:3598 
1 0:3601 
1 0:3604 
1 0:3606 
0.023533128292831 0:3607 
1 0:3615 
1 0:3623 
1 0:3628 
1 0:3633 
0.56247695276427 0:3637 
0.446276917824008 0:3642 
0.8600048329827439 0:3646 
1 0:3653 
1 0:3657 
1 0:3660 
1 0:3663 
1 0:3665 
0.8235861962035707 0:3669 
0.1574300454774153 0:3672 
1 0:3673 
1 0:3675 
1 0:3678 
1 0:3686 
0.5248871887125779 0:3689 
1 0:3693 
0.2760619116496357 0:3696 
1 0:3697 
1 0:3707 
1 0:3708 
1 0:3719 
1 0:3721 
0.2317766539239947 0:3726 
1 0:3727 
1 0:3729 
1 0:3730 
1 0:3734 
1 0:3735 
1 0:3736 
1 0:3737 
1 0:3743 
1 0:3749 
0.134336431047434 0:3754 
1 0:3761 
1 0:3768 
1 0:3773 
1 0:3775 
1 0:3779 
1 0:3780 
1 0:3798 
1 0:3801 
0.7741975765888215 0:3807 
1 0:3809 
0.4401617224632413 0:3817 
1 0:3818 
1 0:3820 
1 0:3825 
1 0:3827 
1 0:3828 
1 0:3829 
1 0:3832 
1 0:3833 
1 0:3834 
1 0:3836 
1 0:3838 
1 0:3842 
1 0:3846 
1 0:3849 
1 0:3850 
1 0:3855 
0.6396142873984343 0:3857 
1 0:3858 
0.4945039541617177 0:3864 
0.05217070963183253 0:3866 
1 0:3867 
0.7505599783150628 0:3870 
1 0:3871 
1 0:3882 
1 0:3885 
0.5098532608636479 0:3887 
1 0:3888 
1 0:3889 
1 0:3892 
1 0:3899 
1 0:3901 
1 0:3902 
0.5409436943737519 0:3917 
0.7247922821653289 0:3919 
0.05197785302161316 0:3929 
1 0:3932 
1 0:3935 
1 0:3938 
1 0:3940 
0.5961504219761107 0:3941 
1 0:3945 
1 0:3957 
0.07482806081444514 0:3958 
1 0:3959 
1 0:3960 
1 0:3968 
1 0:3974 
1 0:3977 
1 0:3978 
1 0:3981 
1 0:3984 
1 0:3988 
1 0:3994 
1 0:3996 
0.1519860330812146 0:4003 
0.7654180644930999 0:4008 
1 0:4011 
1 0:4013 
1 0:4019 
1 0:4025 
1 0:4027 
1 0:4028 
1 0:4029 
1 0:4033 
0.4819026005575877 0:4038 
1 0:4045 
0.8636136961889952 0:4048 
1 0:4051 
1 0:4056 
1 0:4058 
1 0:4063 
0.04258238522437831 0:4065 
1 0:4066 
0.9848193435212071 0:4067 
1 0:4069 
1 0:4070 
0.8141304551267166 0:4071 
0.04667538511958084 0:4083 
1 0:4084 
1 0:4085 
1 0:4091 
1 0:4099 
1 0:4101 
1 0:4105 
1 0:4107 
1 0:4108 
0.02258047475716675 0:4109 
1 0:4113 
1 0:4114 
1 0:4117 
0.2320953164418726 0:4118 
0.2856090536089526 0:4120 
1 0:4122 
1 0:4124 
1 0:4126 
1 0:4129 
0.9843137266197874 0:4139 
0.09042949453539614 0:4141 
1 0:4143 
1 0:4145 
1 0:4146 
1 0:4151 
1 0:4152 
1 0:4153 
-1 0:4165 
-0.04240148535867361 0:4174 
-0.05032066200123474 0:4175 
-1 0:4176 
-0.2163487949124189 0:4178 
-1 0:4182 
-0.6247908549055171 0:4183 
-1 0:4186 
-0.537815236502529 0:4188 
-1 0:4193 
-1 0:4200 
-1 0:4202 
-0.1039116094403236 0:4203 
-0.9133706103665792 0:4205 
-1 0:4210 
-1 0:4213 
-1 0:4219 
-1 0:4222 
-1 0:4230 
-0.2089738144507538 0:4232 
-0.2961474566687386 0:4233 
-0.956778732031779 0:4234 
-1 0:4239 
-0.5981593934268602 0:4240 
-1 0:4243 
-0.7788051423603226 0:4248 
-1 0:4251 
-1 0:4255 
-0.7948975789502741 0:4258 
-1 0:4265 
-0.6656314195169418 0:4269 
-0.3872063280076845 0:4276 
-1 0:4277 
-1 0:4279 
-1 0:4283 
-1 0:4285 
-1 0:4286 
-0.812490976729543 0:4287 
-0.8381418428792854 0:4288 
-1 0:4291 
-0.5635346377703082 0:4295 
-1 0:4297 
-0.8528734149082474 0:4300 
-1 0:4305 
-0.1558640430736484 0:4311 
-1 0:4314 
-1 0:4315 
-1 0:4316 
-1 0:4319 
-1 0:4322 
-1 0:4326 
-1 0:4333 
-1 0:4334 
-1 0:4335 
-1 0:4338 
-1 0:4339 
-1 0:4340 
-1 0:4342 
-1 0:4343 
-0.6071718929283857 0:4344 
-0.2302942126353193 0:4346 
-1 0:4352 
-1 0:4359 
-1 0:4360 
-1 0:4364 
-0.04152391855513676 0:4366 
-1 0:4368 
-1 0:4369 
-0.987450055102611 0:4370 
-1 0:4371 
-1 0:4376 
-1 0:4378 
-0.8243704133581762 0:4380 
-1 0:4387 
-0.7865064248914554 0:4392 
-1 0:4394 
-1 0:4396 
-1 0:4397 
-1 0:4399 
-0.6109970206786036 0:4400 
-1 0:4401 
-1 0:4402 
-0.5939436526489353 0:4403 
-1 0:4405 
-1 0:4407 
-1 0:4416 
-0.09388499158019412 0:4417 
-1 0:4418 
-1 0:4419 
-1 0:4422 
-0.5712728589526764 0:4425 
-1 0:4426 
-0.00830229855277907 0:4427 
-1 0:4428 
-1 0:4429 
-1 0:4434 
-1 0:4439 
-0.8465047869299586 0:4440 
-1 0:4449 
-1 0:4450 
-1 0:4455 
-1 0:4456 
-1 0:4457 
-1 0:4458 
-1 0:4465 
-1 0:4469 
-1 0:4475 
-0.9202063269167051 0:4477 
-0.6802491249646065 0:4478 
-0.4759682789918352 0:4482 
-1 0:4484 
-1 0:4487 
-1 0:4489 
-1 0:4490 
-1 0:4491 
-0.8157632604365959 0:4492 
-1 0:4496 
-1 0:4498 
-1 0:4503 
-0.7992608016230563 0:4505 
-1 0:4510 
-1 0:4516 
-1 0:4518 
-1 0:4523 
-1 0:4528 
-1 0:4529 
-0.4770208776506993 0:4530 
-0.06202922648384448 0:4536 
-1 0:4540 
-0.5828074642366387 0:4546 
-1 0:4547 
-1 0:4549 
-1 0:4554 
-0.8682653114676635 0:4556 
-1 0:4561 
-1 0:4563 
-0.2098570027304128 0:4564 
-0.1062434034431219 0:4565 
-0.03608225808363105 0:4566 
-1 0:4568 
-1 0:4569 
-1 0:4570 
-1 0:4571 
-0.675772585993728 0:4576 
-1 0:4579 
-1 0:4583 
-1 0:4590 
-1 0:4591 
-1 0:4597 
-0.3927869374769112 0:4598 
-1 0:4601 
-1 0:4603 
-0.4429652482694016 0:4609 
-0.6030929310220923 0:4610 
-1 0:4611 
-1 0:4619 
-0.9173836882328217 0:4626 
-0.9080266389858423 0:4628 
-1 0:4630 
-1 0:4640 
-0.789886600389783 0:4645 
-1 0:4648 
-0.2025390975597959 0:4651 
-1 0:4664 
-1 0:4665 
-1 0:4666 
-0.6188380412698877 0:4668 
-1 0:4669 
-1 0:4674 
-1 0:4680 
-1 0:4682 
-1 0:4684 
-1 0:4691 
-1 0:4692 
-1 0:4694 
-1 0:4701 
-1 0:4702 
-0.9111126254922355 0:4703 
-0.5306324929649457 0:4705 
-0.2381499165810759 0:4707 
-1 0:4709 
-1 0:4715 
-0.2373549561418047 0:4717 
-1 0:4718 
-1 0:4721 
-1 0:4724 
-1 0:4732 
-1 0:4733 
-1 0:4735 
-1 0:4740 
-0.2358413804925082 0:4743 
-0.007125091057177476 0:4745 
-1 0:4750 
-0.5513952757723838 0:4752 
-0.1921971646281335 0:4753 
-1 0:4754 
-1 0:4756 
-1 0:4758 
-0.04523593638303272 0:4772 
-1 0:4773 
-1 0:4775 
-1 0:4776 
-0.4921797067463577 0:4782 
-1 0:4792 
-1 0:4793 
-1 0:4797 
-1 0:4800 
-1 0:4806 
-0.3851628767955744 0:4809 
-0.7127783485256057 0:4813 
-1 0:4818 
-1 0:4822 
-1 0:4823 
-0.8909863624810305 0:4828 
-1 0:4830 
-1 0:4831 
-0.02061869277039264 0:4833 
-0.3335456196264829 0:4835 
-0.8573652903132097 0:4836 
-0.9261946248791317 0:4837 
-1 0:4843 
-0.9981120791512554 0:4845 
-1 0:4849 
-1 0:4852 
-0.5801437155722881 0:4855 
-0.4169855475326187 0:4857 
-1 0:4861 
-1 0:4864 
-1 0:4869 
-0.2958942317897886 0:4875 
-0.6912420892992515 0:4878 
-1 0:4881 
-0.8527258075055977 0:4886 
-0.8815704133269265 0:4897 
-1 0:4900 
-1 0:4902 
-0.878564105986461 0:4903 
-1 0:4905 
-1 0:4908 
-1 0:4909 
-1 0:4913 
-1 0:4915 
-0.3818969656048682 0:4916 
-0.9891103040554579 0:4920 
-1 0:4922 
-1 0:4923 
-1 0:4924 
-0.4223976514852482 0:4930 
-0.6821004757726675 0:4934 
-0.3926592153283642 0:4936 
-1 0:4938 
-0.987017854929596 0:4940 
-1 0:4950 
-0.2256586849682939 0:4954 
-0.4404404721320824 0:4955 
-1 0:4960 
-1 0:4967 
-1 0:4972 
-1 0:4973 
-0.9867869364790337 0:4977 
-1 0:4985 
-1 0:4987 
-0.8764541347741227 0:4988 
-1 0:4991 
-1 0:4992 
-1 0:4995 
-0.3602695554415116 0:4996 
-1 0:4999 
-1 0:5004 
-1 0:5009 
-0.2763677994521254 0:5021 
-1 0:5022 
-0.1812578531861496 0:5024 
-1 0:5025 
-1 0:5026 
-1 0:5029 
-1 0:5032 
-1 0:5039 
-1 0:5043 
-1 0:5045 
-1 0:5047 
-1 0:5050 
-1 0:5056 
-1 0:5057 
-0.9614843682869086 0:5060 
-1 0:5070 
-1 0:5073 
-1 0:5074 
-0.3288776548499445 0:5077 
-0.087052256811835 0:5081 
-1 0:5086 
-1 0:5091 
-1 0:5100 
-0.2840236779006493 0:5102 
-1 0:5103 
-1 0:5106 
-1 0:5110 
-1 0:5112 
-1 0:5113 
-0.3765602239443275 0:5120 
-1 0:5122 
-0.6962493665949531 0:5126 
-1 0:5127 
-0.4579582549815522 0:5139 
-1 0:5143 
-1 0:5146 
-0.04922253135392544 0:5148 
-0.882135187285332 0:5149 
-1 0:5153 
-1 0:5157 
-1 0:5159 
-1 0:5163 
-0.04850832917360155 0:5164 
-1 0:5171 
-1 0:5179 
-0.9161508802498243 0:5185 
-1 0:5188 
-1 0:5193 
-1 0:5194 
-0.03614436376106298 0:5197 
-1 0:5204 
-0.4258215060558996 0:5210 
-1 0:5213 
-1 0:5219 
-1 0:5223 
-1 0:5225 
-0.5999635266590628 0:5236 
-1 0:5238 
-1 0:5246 
-0.7050775663628863 0:5254 
-1 0:5260 
-1 0:5263 
-0.5341456916654627 0:5265 
-1 0:5266 
-1 0:5269 
-1 0:5270 
-0.9883031056757112 0:5272 
-0.4352405910807701 0:5273 
-1 0:5274 
-1 0:5275 
-1 0:5280 
-0.8916409539857751 0:5289 
-0.02917607045916176 0:5291 
-1 0:5292 
-1 0:5294 
-1 0:5295 
-1 0:5299 
-1 0:5308 
-1 0:5309 
-1 0:5310 
-1 0:5312 
-1 0:5315 
-0.7790741862141567 0:5318 
-0.6127235135085993 0:5319 
-0.6719872420280948 0:5320 
-1 0:5322 
-0.681683393450069 0:5325 
-1 0:5330 
-1 0:5333 
-1 0:5341 
-1 0:5344 
-1 0:5350 
-1 0:5351 
-0.5593558307356004 0:5352 
-1 0:5360 
-0.7248619959787564 0:5367 
-0.1229170102199098 0:5375 
-1 0:5382 
-1 0:5388 
-1 0:5390 
-1 0:5391 
-1 0:5398 
-0.5736336864616918 0:5399 
-0.3455533977249302 0:5401 
-1 0:5403 
-1 0:5404 
-1 0:5409 
-1 0:5410 
-1 0:5413 
-1 0:5416 
-0.5153258850002937 0:5417 
-0.6438094206613999 0:5423 
-1 0:5424 
-0.003030867561745198 0:5432 
-1 0:5433 
-0.6820666675242399 0:5434 
-0.5609652091667557 0:5435 
-1 0:5437 
-1 0:5440 
-1 0:5441 
-1 0:5443 
-1 0:5448 
-0.7844767914645817 0:5449 
-1 0:5450 
-0.54185449711749 0:5451 
-1 0:5453 
-1 0:5454 
-1 0:5465 
-0.8980002957412618 0:5467 
-1 0:5469 
-0.1921718861651328 0:5470 
-1 0:5473 
-0.4581120951139163 0:5475 
-0.6147824145873735 0:5476 
-1 0:5477 
-0.5436654407118972 0:5492 
-0.2203310852654954 0:5493 
-1 0:5494 
-0.5671816399388998 0:5498 
-1 0:5499 
-1 0:5500 
-1 0:5503 
-1 0:5508 
-1 0:5512 
-1 0:5520 
-1 0:5527 
-1 0:5528 
-1 0:5532 
-0.909131753377632 0:5535 
-1 0:5537 
-1 0:5538 
-1 0:5541 
-0.5845377901748181 0:5547 
-0.9327815832508285 0:5549 
-1 0:5552 
-1 0:5557 
-0.5641760153824885 0:5560 
-1 0:5569 
-1 0:5571 
-1 0:5575 
-1 0:5576 
-1 0:5577 
-1 0:5583 
-1 0:5588 
-1 0:5595 
-1 0:5596 
-1 0:5599 
-1 0:5601 
-0.3578048984625245 0:5608 
-1 0:5619 
-0.7761465723419239 0:5624 
-0.659096792327838 0:5626 
-1 0:5629 
-1 0:5631 
-1 0:5632 
-1 0:5635 
-1 0:5637 
-1 0:5639 
-1 0:5643 
-1 0:5644 
-1 0:5645 
-1 0:5646 
-1 0:5660 
-1 0:5662 
-1 0:5664 
-0.7797811162660967 0:5673 
-0.3875037461784428 0:5675 
-1 0:5685 
-1 0:5686 
-0.7796373428746262 0:5687 
-1 0:5690 
-0.06771750446098054 0:5692 
-1 0:5696 
-1 0:5701 
-1 0:5702 
-1 0:5704 
-1 0:5707 
-1 0:5710 
-1 0:5715 
-1 0:5720 
-1 0:5721 
-1 0:5722 
-1 0:5723 
-1 0:5728 
-0.7120435728319244 0:5729 
-0.04693044115586076 0:5734 
-1 0:5737 
-1 0:5747 
-1 0:5754 
-1 0:5757 
-1 0:5759 
-1 0:5765 
-1 0:5771 
-0.04683536954913354 0:5774 
-0.6546008643013896 0:5775 
-1 0:5778 
-0.6082882165904807 0:5796 
-0.942858773841446 0:5805 
-1 0:5808 
-1 0:5812 
-1 0:5813 
-1 0:5815 
-0.8015308351648479 0:5825 
-0.1042833142222958 0:5832 
-0.7974541972717815 0:5837 
-0.1180025642379252 0:5839 
-0.1127253095465884 0:5844 
-1 0:5847 
-1 0:5848 
-1 0:5856 
-1 0:5860 
-1 0:5866 
-0.6315650442789313 0:5868 
-1 0:5869 
-1 0:5871 
-1 0:5872 
-1 0:5874 
-0.04015154191714777 0:5878 
-1 0:5879 
-1 0:5880 
-1 0:5882 
-0.07045885865889931 0:5889 
-0.5642378143798004 0:5891 
-1 0:5892 
-0.1068100105352274 0:5894 
-1 0:5895 
-1 0:5900 
-0.855625776698395 0:5903 
-1 0:5904 
-1 0:5911 
-1 0:5913 
-0.1506650635891555 0:5915 
-1 0:5923 
-1 0:5927 
-1 0:5933 
-0.7818382628048167 0:5936 
-0.3517621119637273 0:5939 
-0.6530685011958886 0:5940 
-1 0:5946 
-0.6898737780971479 0:5948 
-1 0:5950 
-0.4552013796924839 0:5952 
-0.169413716989192 0:5953 
-1 0:5954 
-0.749653134402013 0:5955 
-1 0:5958 
-0.1418763359322997 0:5962 
-1 0:5968 
-1 0:5972 
-0.5519104850418141 0:5973 
-1 0:5979 
-1 0:5981 
-1 0:5984 
-0.3805514436367253 0:5987 
-0.345126036023939 0:6002 
-0.6340187935921575 0:6003 
-0.8854064627960759 0:6013 
-1 0:6017 
-1 0:6028 
-1 0:6029 
-1 0:6030 
-0.06785802858960696 0:6031 
-1 0:6039 
-1 0:6040 
-1 0:6045 
-0.5963919033040073 0:6048 
-1 0:6050 
-1 0:6053 
-1 0:6054 
-1 0:6060 
-1 0:6061 
-1 0:6063 
-0.5157022658928069 0:6066 
-1 0:6068 
-1 0:6071 
-1 0:6077 
-1 0:6078 
-1 0:6079 
-1 0:6088 
-1 0:6090 
-0.7345313627509665 0:6094 
-1 0:6096 
-1 0:6100 
-1 0:6102 
-1 0:6105 
-1 0:6106 
-0.2246771730137095 0:6107 
-1 0:6110 
-0.324062913104508 0:6112 
-0.2457728277810181 0:6113 
-1 0:6116 
-1 0:6119 
-1 0:6120 
-1 0:6122 
-0.8125549318258317 0:6125 
-1 0:6126 
-0.02539703573868292 0:6127 
-1 0:6134 
-1 0:6139 
-1 0:6140 
-1 0:6146 
-0.3533563443147989 0:6150 
-1 0:6151 
-0.3946675836806871 0:6153 
-0.3893350290039951 0:6154 
-1 0:6155 
-1 0:6163 
-0.2201709712182188 0:6167 
-1 0:6170 
-0.1872556432250182 0:6174 
-1 0:6178 
-0.6894574389273588 0:6179 
-1 0:6180 
-0.783922967223691 0:6182 
-0.8980609614258468 0:6185 
-1 0:6190 
-0.1702240298578173 0:6197 
-1 0:6206 
-1 0:6207 
-1 0:6210 
-0.2048834264426392 0:6214 
-1 0:6220 
-1 0:6222 
-0.1640779760033531 0:6231 
-1 0:6232 
-1 0:6234 
-0.3374099204993616 0:6235 
-0.4089029213610714 0:6236 
-1 0:6238 
-1 0:6239 
-1 0:6240 
-0.9359156700737808 0:6242 
-1 0:6243 
-1 0:6248 
-1 0:6251 
-1 0:6256 
-0.9855174844700457 0:6257 
-1 0:6261 
-1 0:6262 
-1 0:6265 
-1 0:6268 
-1 0:6270 
-1 0:6272 
-1 0:6278 
-1 0:6282 
-0.01385316089999283 0:6283 
-1 0:6287 
-0.5246993653553296 0:6288 
-1 0:6292 
-1 0:6295 
-1 0:6297 
-1 0:6301 
-1 0:6308 
-1 0:6310 
-1 0:6318 
-0.34783717365029 0:6319 
-1 0:6323 
-1 0:6324 
-1 0:6330 
-0.1152003678701906 0:6332 
-0.8420307221075968 0:6333 
-0.3549470574488292 0:6338 
-1 0:6340 
-1 0:6342 
-1 0:6343 
-1 0:6346 
-1 0:6348 
-1 0:6352 
-1 0:6363 
-1 0:6366 
-0.0985864076516296 0:6370 
-1 0:6373 
-1 0:6374 
-0.1483138148560569 0:6377 
-1 0:6380 
-1 0:6383 
-1 0:6385 
-0.1964139204219012 0:6389 
-0.2714203441424632 0:6390 
-1 0:6391 
-1 0:6399 
-1 0:6401 
-1 0:6404 
-1 0:6406 
-1 0:6410 
-1 0:6412 
-0.6443334744409733 0:6417 
-1 0:6420 
-1 0:6426 
-1 0:6427 
-1 0:6429 
-1 0:6430 
-1 0:6435 
-0.01977064936283616 0:6442 
-1 0:6446 
-0.219214270819326 0:6447 
-1 0:6450 
-0.3024296930892977 0:6452 
-0.2755959918601543 0:6453 
-1 0:6454 
-1 0:6458 
-1 0:6459 
-1 0:6461 
-1 0:6466 
-0.8836423901535517 0:6475 
-1 0:6477 
-1 0:6485 
-0.3768508619673173 0:6489 
-1 0:6491 
-0.2691477913463289 0:6492 
-0.7020080694348483 0:6493 
-1 0:6496 
-1 0:6500 
-1 0:6501 
-1 0:6503 
-0.8227243920562253 0:6505 
-1 0:6508 
-0.2167157749364687 0:6509 
-1 0:6514 
-0.5886606986050532 0:6515 
-1 0:6516 
-1 0:6517 
-1 0:6518 
-1 0:6520 
-1 0:6523 
-1 0:6527 
-0.2476263429181292 0:6541 
-1 0:6543 
-1 0:6545 
-1 0:6550 
-1 0:6556 
-1 0:6560 
-1 0:6568 
-1 0:6571 
-1 0:6574 
-0.612027879075407 0:6575 
-0.1730678513334997 0:6578 
-0.2484332485252653 0:6579 
-0.3468323063929277 0:6580 
-1 0:6585 
-0.1284064859125701 0:6587 
-1 0:6588 
-0.3866271946209515 0:6589 
-1 0:6590 
-1 0:6593 
-1 0:6597 
-0.08215080308457523 0:6599 
-0.4336439071874914 0:6601 
-1 0:6602 
-1 0:6604 
-1 0:6605 
-1 0:6611 
-1 0:6613 
-1 0:6618 
-1 0:6620 
-1 0:6622 
-1 0:6623 
-1 0:6632 
-1 0:6638 
-0.2645203214239766 0:6640 
-1 0:6642 
-1 0:6644 
-0.3021796171330463 0:6645 
-1 0:6646 
-1 0:6657 
-1 0:6661 
-1 0:6665 
-1 0:6669 
-0.9555697036507144 0:6670 
-1 0:6674 
-1 0:6679 
-1 0:6680 
-1 0:6682 
-1 0:6688 
-1 0:6689 
-1 0:6692 
-1 0:6700 
-1 0:6705 
-1 0:6707 
-1 0:6709 
-1 0:6713 
-1 0:6714 
-1 0:6721 
-1 0:6723 
-1 0:6728 
-0.8375358548940529 0:6730 
-0.4768602771732422 0:6733 
-1 0:6735 
-1 0:6736 
-0.1475309634899654 0:6737 
-1 0:6741 
-0.02829442444042057 0:6744 
-1 0:6746 
-1 0:6752 
-0.3737149784520395 0:6757 
-0.8844016677257244 0:6759 
-1 0:6761 
-1 0:6762 
-0.5579067647261802 0:6765 
-0.895288856533178 0:6766 
-1 0:6772 
-0.8129462379815029 0:6776 
-1 0:6778 
-1 0:6779 
-1 0:6783 
-0.4247124081639699 0:6786 
-1 0:6793 
-0.06622284096684637 0:6795 
-0.6516990173902423 0:6798 
-1 0:6799 
-0.849861823831555 0:6806 
-0.1407459180937276 0:6808 
-0.4794655559553062 0:6812 
-1 0:6815 
-1 0:6817 
-0.7273004096825608 0:6818 
-1 0:6819 
-1 0:6823 
-1 0:6825 
-0.2900964712980894 0:6827 
-1 0:6828 
-0.02513595554058218 0:6833 
-0.06840294994638749 0:6834 
-0.4795007086960538 0:6837 
-1 0:6850 
-1 0:6851 
-1 0:6853 
-1 0:6855 
-0.574387509228045 0:6858 
-1 0:6867 
-0.618572157965846 0:6868 
-0.08715250203154126 0:6874 
-1 0:6878 
-1 0:6879 
-1 0:6880 
-1 0:6882 
-1 0:6886 
-1 0:6888 
-1 0:6890 
-1 0:6896 
-1 0:6898 
-1 0:6899 
-1 0:6903 
-1 0:6905 
-0.5939786746316715 0:6906 
-0.741532806515478 0:6907 
-0.2515723638579471 0:6908 
-0.9133913483732405 0:6918 
-0.8540419732310218 0:6920 
-1 0:6922 
-1 0:6923 
-0.8397182682152735 0:6929 
-1 0:6936 
-1 0:6938 
-1 0:6939 
-1 0:6940 
-1 0:6943 
-1 0:6944 
-1 0:6952 
-0.1570852912226863 0:6955 
-1 0:6960 
-1 0:6965 
-1 0:6968 
-1 0:6971 
-0.3985109789285051 0:6972 
-0.5057521470549159 0:6973 
-1 0:6975 
-1 0:6978 
-1 0:6982 
-0.8311093716411615 0:6983 
-0.9675643385159474 0:6984 
-1 0:6985 
-1 0:6992 
-0.05585935060943315 0:6995 
-1 0:7003 
-1 0:7010 
-1 0:7012 
-1 0:7014 
-1 0:7019 
-1 0:7021 
-1 0:7022 
-1 0:7024 
-0.7250259668473659 0:7027 
-1 0:7030 
-1 0:7032 
-1 0:7033 
-0.3257680926419651 0:7036 
-1 0:7039 
-1 0:7040 
-0.008162668755162642 0:7059 
-1 0:7062 
-1 0:7063 
-0.5156453554113489 0:7067 
-0.5514517644213678 0:7071 
-0.6533944174729233 0:7073 
-1 0:7076 
-0.5805439404596705 0:7077 
-0.3607090667930052 0:7078 
-1 0:7081 
-1 0:7093 
-0.234732698976339 0:7094 
-1 0:7097 
-1 0:7100 
-0.8109687953362461 0:7102 
-0.7892844723898875 0:7104 
-1 0:7106 
-1 0:7113 
-1 0:7114 
-0.4163203877723658 0:7115 
-1 0:7119 
-0.7532880228040736 0:7120 
-0.9255470921280792 0:7132 
-1 0:7139 
-1 0:7140 
-0.2044415866431635 0:7141 
-1 0:7147 
-0.5995559864141941 0:7149 
-1 0:7152 
-1 0:7154 
-1 0:7158 
-1 0:7161 
-1 0:7163 
-1 0:7166 
-1 0:7167 
-0.6974109895216328 0:7169 
-0.01543001996818634 0:7171 
-1 0:7172 
-1 0:7174 
-1 0:7180 
-0.5394645621555676 0:7182 
-0.3591516320138169 0:7185 
-1 0:7192 
-1 0:7198 
-0.4733838984043979 0:7200 
-1 0:7202 
-0.7639341801707417 0:7206 
-1 0:7211 
-1 0:7212 
-1 0:7214 
-1 0:7217 
-1 0:7225 
-1 0:7235 
-1 0:7236 
-0.5808166685773639 0:7243 
-1 0:7244 
-0.290740270598605 0:7247 
-1 0:7253 
-1 0:7256 
-0.2877006469427495 0:7259 
-1 0:7272 
-1 0:7273 
-1 0:7276 
-1 0:7277 
-0.8550670653676854 0:7281 
-0.08087716230243036 0:7286 
-0.4483126790051554 0:7289 
-1 0:7292 
-1 0:7293 
-1 0:7296 
-1 0:7299 
-1 0:7300 
-0.6830550770161727 0:7305 
-1 0:7307 
-0.1122855486800581 0:7309 
-1 0:7321 
-1 0:7322 
-1 0:7323 
-1 0:7329 
-0.8802968277774242 0:7337 
-1 0:7340 
-1 0:7346 
-0.06252584946305373 0:7347 
-0.5791009138561157 0:7348 
-0.5162288689652872 0:7351 
-1 0:7353 
-1 0:7354 
-1 0:7356 
-0.5926651959504269 0:7358 
-1 0:7360 
-1 0:7362 
-1 0:7363 
-1 0:7370 
-0.9282186556943297 0:7371 
-0.5402481922933784 0:7372 
-1 0:7375 
-1 0:7376 
-1 0:7378 
-1 0:7388 
-1 0:7390 
-1 0:7391 
-1 0:7396 
-1 0:7401 
-0.04990502061643907 0:7409 
-1 0:7412 
-1 0:7415 
-1 0:7419 
-1 0:7422 
-1 0:7423 
-1 0:7426 
-0.8496440608575658 0:7433 
-1 0:7434 
-0.6247203098071611 0:7440 
-1 0:7448 
-1 0:7449 
-0.9949586728217638 0:7451 
-0.3685262019977464 0:7454 
-1 0:7455 
-1 0:7463 
-0.7849727089575751 0:7470 
-1 0:7472 
-1 0:7474 
-1 0:7475 
-0.5255970990204784 0:7477 
-1 0:7481 
-1 0:7482 
-1 0:7485 
-0.7823394576909081 0:7491 
-0.09598701902187941 0:7495 
-1 0:7498 
-1 0:7501 
-1 0:7503 
-1 0:7504 
-1 0:7508 
-1 0:7515 
-1 0:7519 
-0.6843465580922642 0:7523 
-0.1790045998212226 0:7526 
-1 0:7529 
-1 0:7535 
-1 0:7538 
-0.5081793137881803 0:7547 
-0.3469664217231231 0:7550 
-1 0:7553 
-1 0:7558 
-1 0:7561 
-1 0:7562 
-0.2574995579254675 0:7564 
-1 0:7565 
-1 0:7570 
-1 0:7575 
-1 0:7576 
-1 0:7578 
-0.6728923831910232 0:7579 
-1 0:7582 
-0.854098055649659 0:7585 
-0.7378967061501893 0:7586 
-1 0:7587 
-1 0:7588 
-0.8486432016527206 0:7590 
-1 0:7591 
-1 0:7596 
-1 0:7597 
-1 0:7598 
-0.2806845285892293 0:7600 
-1 0:7602 
-0.009323203096646604 0:7605 
-1 0:7607 
-1 0:7608 
-1 0:7609 
-1 0:7610 
-1 0:7613 
-0.8814255620711202 0:7618 
-1 0:7620 
-1 0:7623 
-1 0:7628 
-1 0:7630 
-1 0:7631 
-1 0:7632 
-0.102080187349355 0:7635 
-1 0:7637 
-1 0:7638 
-1 0:7640 
-1 0:7642 
-1 0:7643 
-1 0:7648 
-1 0:7649 
-1 0:7654 
-0.5751149055157773 0:7656 
-1 0:7664 
-1 0:7665 
-1 0:7669 
-1 0:7670 
-1 0:7673 
-1 0:7677 
-1 0:7683 
-1 0:7684 
-0.9136862793585508 0:7691 
-1 0:7693 
-1 0:7698 
-0.619594575975787 0:7711 
-1 0:7715 
-1 0:7716 
-0.1480583611598162 0:7717 
-0.6071962741788137 0:7719 
-1 0:7720 
-1 0:7721 
-1 0:7727 
-1 0:7732 
-1 0:7737 
-1 0:7744 
-1 0:7745 
-0.5146662656119723 0:7751 
-1 0:7757 
-1 0:7761 
-1 0:7764 
-1 0:7767 
-1 0:7772 
-1 0:7775 
-1 0:7777 
-0.3651563999781219 0:7784 
-0.8890873530585988 0:7786 
-1 0:7791 
-1 0:7792 
-1 0:7798 
-1 0:7801 
-1 0:7804 
-1 0:7809 
-1 0:7810 
-1 0:7814 
-1 0:7817 
-1 0:7819 
-0.6556507311858059 0:7820 
-1 0:7823 
-1 0:7824 
-1 0:7832 
-1 0:7843 
-1 0:7844 
-0.7547886999209733 0:7848 
-1 0:7851 
-0.1689366029234066 0:7854 
-1 0:7855 
-1 0:7856 
-1 0:7861 
-0.1738848936636159 0:7865 
-1 0:7875 
-1 0:7876 
-0.7429796607512873 0:7877 
-0.7960390904879501 0:7878 
-1 0:7879 
-1 0:7881 
-0.2370142441581556 0:7883 
-1 0:7892 
-0.9603809497464877 0:7898 
-0.3105277266397958 0:7904 
-1 0:7905 
-1 0:7913 
-1 0:7915 
-1 0:7922 
-0.3401147306608326 0:7926 
-1 0:7928 
-1 0:7932 
-1 0:7933 
-1 0:7934 
-1 0:7935 
-1 0:7936 
-1 0:7937 
-1 0:7938 
-0.07494559790326982 0:7943 
-1 0:7952 
-1 0:7954 
-1 0:7955 
-0.8146134851093989 0:7956 
-0.040452150573595 0:7958 
-1 0:7967 
-0.4773982354132681 0:7970 
-1 0:7971 
-1 0:7973 
-1 0:7974 
-1 0:7976 
-0.9921922539369057 0:7977 
-1 0:7979 
-0.6233921250436729 0:7982 
-1 0:7984 
-1 0:7985 
-0.04830414808354883 0:7987 
-0.6877852674372279 0:7990 
-1 0:7992 
-1 0:7997 
-0.2200354604179017 0:7999 
-1 0:8000 
-1 0:8003 
-0.006509601129243769 0:8005 
-0.3112524721126528 0:8008 
-1 0:8010 
-0.5829679238844885 0:8012 
-0.9179623527426383 0:8031 
-1 0:8033 
-1 0:8035 
-1 0:8040 
-1 0:8050 
-1 0:8055 
-1 0:8060 
-0.5184591751825011 0:8061 
-1 0:8068 
-1 0:8069 
-1 0:8071 
-1 0:8076 
-1 0:8077 
-1 0:8079 
-0.3546676039240585 0:8083 
-1 0:8084 
-1 0:8085 
-1 0:8089 
-1 0:8091 
-1 0:8093 
-1 0:8094 
-1 0:8095 
-0.4113605257983232 0:8099 
-1 0:8102 
-1 0:8104 
-1 0:8109 
-1 0:8110 
-0.3463632474188629 0:8112 
-1 0:8118 
-1 0:8126 
-0.2704652048577865 0:8131 
-1 0:8133 
-1 0:8137 
-1 0:8138 
-0.3550810159870187 0:8140 
-1 0:8148 
-1 0:8149 
-0.9148811530289904 0:8150 
-0.003096416468327699 0:8156 
-1 0:8159 
-1 0:8160 
-0.6943726184210216 0:8165 
-0.3998826225357251 0:8167 
-1 0:8169 
-1 0:8176 
-1 0:8177 
-0.3158135588304735 0:8182 
-1 0:8184 
-0.3612474216538695 0:8185 
-0.5304289519481079 0:8186 
-0.7340277422872511 0:8191 
-1 0:8194 
-0.8544249375381205 0:8195 
-1 0:8202 
-1 0:8203 
-1 0:8204 
-1 0:8222 
-1 0:8223 
-0.2150066354634186 0:8226 
-1 0:8230 
-1 0:8232 
-1 0:8236 
-1 0:8242 
-1 0:8245 
-0.3115130493720011 0:8249 
-0.07328978851978121 0:8254 
-0.3967044677117992 0:8264 
-0.3711188641753944 0:8266 
-1 0:8269 
-1 0:8275 
-0.5874939976371599 0:8276 
-1 0:8278 
-1 0:8286 
-0.5661308180300207 0:8288 
-1 0:8294 
-1 0:8298 
-1 0:8301 
-1 0:8304 
-1 0:8305 
-1 0:8313 
-1 0:8315 
-1 0:8316 
-1 0:8317 
-1 0:8320 
