svm_type c_svc
kernel_type precomputed
nr_class 2
total_sv 2927
rho -0.170776
label 1 -1
probA -2.50688
probB -0.0307437
nr_sv 1494 1433
SV
0.632057572127572 0:1 
1 0:2 
0.1080234672183232 0:4 
0.1365654386756356 0:7 
1 0:9 
1 0:10 
1 0:11 
0.05331082743473112 0:13 
0.9942571867837048 0:17 
0.2839575094594468 0:19 
1 0:20 
1 0:22 
1 0:25 
0.2466982387917992 0:26 
1 0:30 
1 0:39 
0.008816735339395906 0:40 
0.2534888738160847 0:41 
1 0:46 
0.3404066875941222 0:49 
0.6052394090676637 0:52 
0.5732696463589469 0:56 
1 0:61 
1 0:62 
0.970826501839793 0:64 
1 0:65 
1 0:66 
1 0:68 
1 0:70 
1 0:72 
1 0:74 
1 0:75 
0.7121535463567293 0:77 
1 0:78 
1 0:79 
1 0:80 
1 0:82 
0.1080560813615122 0:83 
1 0:84 
0.7566734176556066 0:85 
1 0:86 
1 0:87 
0.5458798805293374 0:91 
0.6455895298571861 0:92 
0.9654871280808045 0:93 
1 0:97 
1 0:99 
0.5852655280083505 0:100 
0.4054405209202825 0:103 
1 0:104 
0.7245509544329317 0:105 
0.3563913129698952 0:108 
0.7497433925429043 0:111 
1 0:114 
0.6660986070000063 0:115 
0.1154463417572147 0:123 
1 0:124 
0.771356002028757 0:127 
0.09019517975728814 0:129 
0.1422233165899254 0:131 
1 0:132 
1 0:135 
1 0:139 
1 0:142 
0.6142792129839922 0:143 
0.04711060778590572 0:144 
1 0:145 
1 0:146 
1 0:149 
0.4223733934209195 0:151 
0.3694681128242766 0:152 
1 0:153 
1 0:154 
1 0:156 
0.4493595743693703 0:157 
1 0:158 
1 0:161 
1 0:162 
1 0:165 
1 0:171 
0.9320436160133997 0:174 
0.7524106296601635 0:175 
0.13928527073816 0:176 
1 0:177 
1 0:178 
1 0:179 
0.4851607920079485 0:183 
0.7044631340934925 0:184 
1 0:186 
1 0:190 
1 0:195 
1 0:200 
1 0:201 
1 0:202 
0.1996429651787945 0:206 
1 0:211 
0.5182117344926613 0:214 
0.5365729286996103 0:216 
0.6292817287043853 0:217 
1 0:218 
1 0:219 
1 0:222 
0.9376957700444291 0:223 
1 0:225 
0.764402152614771 0:226 
1 0:227 
1 0:231 
0.8468489326777049 0:232 
0.8251656229714548 0:235 
1 0:236 
1 0:238 
0.3297534900785153 0:243 
1 0:249 
1 0:251 
0.273527045831662 0:252 
0.04657770247024566 0:255 
1 0:260 
1 0:261 
0.4158731998620199 0:264 
1 0:266 
1 0:268 
1 0:269 
0.06083848604458061 0:270 
1 0:273 
1 0:274 
0.6584242616538153 0:275 
0.1422108229013191 0:276 
0.1556878353174342 0:277 
0.3569895953054365 0:278 
0.4036952824855937 0:279 
1 0:280 
0.6801308137323511 0:281 
1 0:283 
0.3057580763502641 0:285 
1 0:288 
1 0:290 
1 0:294 
1 0:296 
1 0:297 
1 0:298 
1 0:303 
1 0:307 
0.1160303749909466 0:309 
1 0:310 
0.548490345652154 0:315 
1 0:316 
1 0:319 
1 0:321 
0.5962892168299203 0:324 
0.8219697142281029 0:325 
1 0:327 
0.209698460506989 0:328 
0.5265630909069435 0:331 
0.6066568713877575 0:333 
1 0:334 
0.740560251888341 0:335 
1 0:336 
1 0:339 
1 0:340 
0.3739968215768616 0:342 
1 0:348 
1 0:350 
0.6767497049338821 0:351 
1 0:353 
0.540807753895474 0:359 
0.06800332570430809 0:360 
1 0:361 
1 0:365 
0.07835394628755983 0:369 
1 0:371 
0.5607503729655451 0:372 
0.6029830411536833 0:375 
1 0:378 
1 0:381 
0.8631064305556355 0:384 
0.2601239292663559 0:387 
0.1304654456166362 0:388 
0.1332098061618171 0:392 
0.8388913435142088 0:396 
0.1898817421868324 0:397 
1 0:398 
1 0:401 
0.3142114752050793 0:404 
0.03411746114913247 0:405 
1 0:407 
0.1938672575903333 0:410 
1 0:411 
0.9269006091421885 0:412 
0.8277302438185656 0:414 
1 0:418 
0.5600339536048057 0:419 
1 0:420 
1 0:424 
0.4171288909708307 0:425 
1 0:429 
0.5096282585034846 0:431 
1 0:434 
0.802528533271162 0:435 
1 0:438 
1 0:441 
0.7689211741491168 0:445 
1 0:448 
1 0:450 
1 0:452 
0.9813436651928833 0:453 
0.3722797615336813 0:454 
0.08063506160330705 0:455 
0.1289191993351372 0:456 
0.7162148837749204 0:459 
1 0:466 
0.04245086227802426 0:467 
1 0:469 
0.7880111767323869 0:472 
0.5795119531786335 0:477 
1 0:479 
1 0:482 
1 0:484 
1 0:487 
1 0:488 
1 0:489 
1 0:491 
1 0:492 
0.960478021214393 0:493 
1 0:495 
1 0:496 
1 0:502 
0.1747207733958427 0:508 
0.9339087409803646 0:510 
1 0:511 
1 0:513 
0.1512407067560341 0:514 
1 0:517 
0.2840909480461151 0:518 
1 0:521 
1 0:527 
0.6978825823497344 0:533 
1 0:536 
1 0:537 
1 0:538 
1 0:541 
0.1210509322660482 0:542 
1 0:544 
0.01173198838658973 0:553 
0.3615850169897822 0:555 
0.2062196322608667 0:556 
0.2723673973597365 0:557 
0.2953183388978409 0:559 
1 0:562 
1 0:565 
1 0:569 
0.9035126915739649 0:572 
1 0:573 
1 0:574 
1 0:576 
0.1811046701609349 0:577 
1 0:578 
1 0:580 
1 0:581 
0.9691773177313286 0:583 
0.2022108564540312 0:586 
1 0:589 
0.4018909655388302 0:590 
1 0:594 
0.9549433022984927 0:598 
1 0:599 
1 0:600 
1 0:602 
1 0:605 
0.1773349687020525 0:606 
0.6324589187501333 0:608 
1 0:609 
0.1678799033396076 0:616 
0.7800765408178496 0:618 
1 0:619 
1 0:622 
0.6468942997512075 0:623 
1 0:624 
1 0:625 
1 0:626 
1 0:630 
1 0:631 
0.6172745290690005 0:632 
1 0:633 
0.5490492074084309 0:634 
1 0:637 
1 0:638 
1 0:639 
1 0:640 
1 0:641 
1 0:644 
0.1137149365019461 0:645 
1 0:648 
0.6121464907241474 0:649 
0.2626936836031952 0:650 
0.624628022543628 0:651 
1 0:652 
1 0:654 
0.5435168690781478 0:655 
0.8744155645415037 0:656 
1 0:657 
1 0:658 
0.1512924706615485 0:660 
1 0:663 
0.8432506487894524 0:671 
1 0:672 
0.6409136834122385 0:677 
1 0:678 
0.6406309865625778 0:679 
0.3690111641166274 0:683 
0.3102733018012188 0:684 
0.680134268921886 0:685 
1 0:691 
0.1336335555645453 0:693 
1 0:694 
0.3512095785044296 0:698 
1 0:701 
0.6543690924634589 0:702 
1 0:704 
1 0:708 
0.8216805196112994 0:709 
1 0:710 
1 0:712 
0.1035921216142997 0:713 
1 0:714 
0.6134869459209756 0:715 
1 0:717 
1 0:719 
1 0:721 
1 0:722 
0.7623164089696746 0:728 
0.6472927734537767 0:729 
1 0:730 
1 0:732 
1 0:733 
1 0:737 
1 0:739 
0.4919067344714418 0:740 
0.9523571180511462 0:741 
0.205115293736196 0:742 
0.6367232987326458 0:743 
0.5584479899844825 0:745 
0.8125830131184423 0:747 
0.848558913301903 0:749 
1 0:750 
0.3417241637740946 0:751 
1 0:752 
1 0:754 
1 0:758 
1 0:760 
0.2360500805877686 0:761 
0.6597260782983388 0:762 
0.5660872445095885 0:763 
0.02418898589143818 0:766 
0.1945523648219197 0:770 
1 0:772 
1 0:773 
0.08634242965621805 0:775 
1 0:777 
0.06737114695939421 0:778 
0.7122276448765285 0:780 
1 0:781 
1 0:784 
0.08918569183089212 0:785 
0.218397826186278 0:790 
0.1034133097259982 0:791 
1 0:794 
0.7530072858434744 0:801 
0.2203761386779763 0:803 
1 0:804 
0.1046722231818503 0:805 
0.5342218039522619 0:807 
0.3366559665807347 0:811 
1 0:812 
0.0496964894401556 0:814 
1 0:815 
1 0:816 
0.4372357093802851 0:819 
0.007391520085656025 0:822 
0.7273737337482844 0:824 
0.5442642023506202 0:831 
1 0:834 
0.866701583227772 0:836 
1 0:837 
0.1276489605274851 0:838 
0.1970163363974016 0:842 
0.2163151324848897 0:845 
0.6093783622180919 0:846 
0.4395598752650791 0:849 
1 0:853 
1 0:855 
1 0:861 
0.7231247984191267 0:862 
0.4713442568735783 0:865 
0.6213488945827385 0:866 
1 0:869 
0.9281469694011184 0:876 
0.1257970573983614 0:877 
1 0:884 
1 0:887 
0.9449050696285464 0:889 
0.71148764059145 0:892 
0.9667757749917218 0:894 
0.08067233470817273 0:898 
0.8025062852157375 0:902 
1 0:903 
0.5767055924964445 0:906 
1 0:907 
1 0:908 
0.8051813806232094 0:910 
0.5561349992965773 0:911 
1 0:913 
1 0:914 
0.1190895214219001 0:915 
1 0:917 
1 0:920 
0.3409930090721915 0:922 
0.8209077323110675 0:924 
0.6117927805012519 0:925 
1 0:926 
1 0:927 
0.1417168337832098 0:931 
0.5293037590619992 0:935 
1 0:936 
1 0:937 
1 0:939 
0.709976101091865 0:941 
0.3432496352903314 0:943 
0.01015245373076798 0:944 
0.03275655918887276 0:946 
1 0:948 
1 0:949 
1 0:951 
1 0:952 
0.5790641032127163 0:953 
0.1890322360489555 0:954 
0.6272335091798598 0:955 
0.5757059050700687 0:956 
1 0:958 
0.2347651436203113 0:963 
1 0:965 
0.5412570707144475 0:966 
0.06043494706708919 0:967 
1 0:968 
1 0:971 
1 0:972 
1 0:974 
1 0:978 
1 0:982 
1 0:983 
1 0:989 
1 0:991 
1 0:993 
0.402255355281292 0:994 
0.4587064120057642 0:997 
1 0:999 
1 0:1003 
0.4646895328635577 0:1005 
1 0:1007 
1 0:1011 
1 0:1016 
0.8372920251148683 0:1019 
1 0:1020 
0.186933973172923 0:1021 
1 0:1025 
0.4694665785259581 0:1027 
1 0:1032 
0.5758417222028565 0:1033 
1 0:1034 
1 0:1037 
1 0:1039 
1 0:1043 
1 0:1044 
0.6644990866795562 0:1045 
1 0:1047 
1 0:1048 
1 0:1049 
1 0:1054 
0.2050750491219314 0:1057 
0.8494167923273741 0:1062 
0.9671607649314844 0:1064 
1 0:1069 
1 0:1070 
1 0:1071 
0.3311623070205048 0:1072 
1 0:1073 
1 0:1077 
0.005609696497763769 0:1078 
0.4817864229034695 0:1079 
0.661907464554876 0:1081 
1 0:1084 
1 0:1086 
1 0:1087 
1 0:1089 
1 0:1091 
0.7138378336108109 0:1092 
1 0:1093 
1 0:1098 
0.8083723894826338 0:1100 
1 0:1101 
0.02141237441933262 0:1106 
0.08282210391808996 0:1107 
0.3209066201449438 0:1108 
1 0:1110 
0.8425971867715716 0:1111 
1 0:1117 
1 0:1118 
0.7601725414143954 0:1123 
0.9522019654714983 0:1125 
0.361697066454221 0:1132 
1 0:1134 
1 0:1139 
1 0:1140 
1 0:1144 
1 0:1147 
0.4509702323774329 0:1148 
1 0:1153 
1 0:1155 
0.5098335363714851 0:1161 
0.9536523371191266 0:1163 
0.5583243921287689 0:1164 
0.6872590076289586 0:1168 
0.4914172195502342 0:1169 
0.6055138361579895 0:1171 
1 0:1172 
1 0:1175 
0.2574879472397643 0:1178 
0.6795601669832764 0:1179 
0.1581874278928132 0:1180 
1 0:1181 
0.8008256455424582 0:1182 
0.6090914147786253 0:1183 
1 0:1185 
0.00923067774796997 0:1187 
0.5280617890144229 0:1189 
0.4117326042415893 0:1194 
0.7872272870979221 0:1195 
1 0:1196 
1 0:1199 
1 0:1200 
0.3925917409832351 0:1202 
1 0:1203 
1 0:1204 
0.4108903496759374 0:1206 
0.04845505155079849 0:1210 
1 0:1214 
0.963223625125639 0:1216 
1 0:1219 
0.6120640060545863 0:1220 
0.137978412252817 0:1223 
1 0:1224 
1 0:1225 
0.5635975443968104 0:1227 
1 0:1228 
0.9745003797230669 0:1230 
0.1566616362029639 0:1231 
1 0:1232 
0.7650122250901501 0:1234 
0.1007336452746797 0:1235 
0.07804945121598145 0:1237 
0.286967647380647 0:1238 
1 0:1239 
1 0:1252 
1 0:1258 
0.5224365326408514 0:1259 
1 0:1260 
0.9884175227553617 0:1261 
0.2641645226169145 0:1267 
0.757834142207178 0:1269 
1 0:1270 
1 0:1271 
0.3415937267004113 0:1273 
1 0:1274 
0.2987951376006972 0:1275 
0.6262817044877022 0:1277 
1 0:1280 
0.416319123083739 0:1281 
0.5877077762587494 0:1283 
0.3779058921733765 0:1284 
1 0:1286 
1 0:1289 
1 0:1291 
0.5928452871966953 0:1293 
0.1259694895125588 0:1295 
1 0:1299 
0.6136795180964381 0:1301 
0.7280193962978764 0:1304 
1 0:1306 
0.4347879455866334 0:1310 
0.9499115307107033 0:1311 
0.4075330863993665 0:1312 
0.4665366988346417 0:1315 
1 0:1317 
1 0:1320 
0.9480042881429611 0:1323 
1 0:1325 
1 0:1326 
1 0:1329 
0.5803096926904783 0:1331 
1 0:1333 
1 0:1338 
0.06429887140462504 0:1339 
1 0:1340 
0.379519994070567 0:1342 
0.7752486776577455 0:1345 
1 0:1347 
0.5302089046248396 0:1350 
0.6856333457035437 0:1354 
0.04397992433160532 0:1356 
1 0:1359 
0.0216388909857212 0:1363 
1 0:1367 
1 0:1368 
1 0:1370 
0.3452874709438547 0:1371 
0.1834563920845642 0:1374 
0.4192556373098982 0:1375 
0.8991378004477911 0:1376 
1 0:1378 
1 0:1379 
0.5938570917756006 0:1382 
0.2469275395272254 0:1386 
0.3850752818527598 0:1390 
1 0:1393 
0.9959460039083448 0:1394 
0.2461904652739036 0:1398 
0.4704030035874719 0:1399 
0.6977022315183917 0:1402 
1 0:1403 
1 0:1404 
0.6384803897851961 0:1405 
1 0:1415 
0.2769126226288128 0:1416 
1 0:1417 
0.1356199404719104 0:1418 
1 0:1419 
0.3858866434913054 0:1422 
0.2125921978411709 0:1424 
1 0:1425 
0.3142732619646693 0:1428 
0.7238963544713825 0:1431 
1 0:1433 
1 0:1437 
0.04078913713511726 0:1439 
1 0:1440 
1 0:1444 
1 0:1445 
1 0:1446 
1 0:1447 
0.2598649678560438 0:1451 
0.6272790403081612 0:1454 
1 0:1455 
1 0:1459 
0.5571070728830274 0:1461 
1 0:1462 
0.1149843335823784 0:1464 
0.9601046242485214 0:1465 
0.2563167462279022 0:1467 
1 0:1469 
0.1640041109670345 0:1470 
0.8790181211151755 0:1471 
1 0:1472 
0.2140679409793517 0:1473 
1 0:1475 
1 0:1477 
0.813961505418374 0:1478 
1 0:1483 
1 0:1486 
1 0:1488 
1 0:1489 
1 0:1490 
0.4262659618135077 0:1492 
1 0:1493 
1 0:1496 
1 0:1497 
1 0:1499 
1 0:1502 
0.3973620601094596 0:1503 
1 0:1504 
0.8310086299317273 0:1505 
1 0:1506 
1 0:1507 
1 0:1508 
0.4909970165530569 0:1509 
0.5761374245657463 0:1513 
0.5684139840630491 0:1514 
0.6405748168595571 0:1515 
1 0:1519 
1 0:1522 
1 0:1523 
0.6190303107010504 0:1524 
1 0:1528 
1 0:1529 
0.05014288064664982 0:1533 
1 0:1536 
1 0:1544 
1 0:1545 
1 0:1546 
0.7810423422125982 0:1548 
1 0:1550 
0.3413153023844092 0:1551 
0.4251294026112821 0:1555 
1 0:1560 
1 0:1562 
0.8843475995181784 0:1565 
1 0:1568 
1 0:1570 
0.5420776299101974 0:1573 
1 0:1578 
0.5127944052194526 0:1579 
1 0:1586 
0.8430805572679387 0:1587 
0.225703770590748 0:1592 
1 0:1593 
0.5617488715148361 0:1595 
1 0:1597 
0.1371493587095306 0:1598 
1 0:1601 
1 0:1603 
1 0:1604 
0.7515832670961399 0:1607 
1 0:1609 
1 0:1610 
0.5615421241240678 0:1612 
0.4839241509452762 0:1613 
1 0:1614 
0.4332861935056952 0:1615 
1 0:1616 
0.6890529927055711 0:1617 
1 0:1619 
1 0:1621 
1 0:1625 
0.249094220284581 0:1626 
0.4064798870026102 0:1627 
0.120489332143692 0:1628 
1 0:1629 
0.2622182555157473 0:1630 
0.2181511450631217 0:1632 
1 0:1633 
0.340751206789049 0:1634 
0.9487559549293108 0:1635 
0.332259148607228 0:1637 
1 0:1639 
1 0:1640 
0.06636789058134469 0:1641 
1 0:1642 
1 0:1644 
0.3398092552157586 0:1646 
1 0:1647 
0.8416263797590392 0:1652 
1 0:1654 
1 0:1655 
1 0:1656 
0.9024735981247975 0:1659 
0.4113624834616813 0:1661 
1 0:1663 
1 0:1664 
0.402519086731598 0:1667 
1 0:1668 
1 0:1672 
1 0:1673 
0.6542261142773914 0:1676 
1 0:1678 
0.3783747601895318 0:1679 
0.717981994904703 0:1683 
0.3151424960059629 0:1684 
1 0:1686 
0.3471878358340728 0:1688 
0.3441837768778435 0:1690 
0.3546962420359017 0:1691 
1 0:1692 
0.801471681662986 0:1698 
1 0:1700 
0.3325048531539507 0:1703 
0.7327117110173016 0:1704 
0.4601881692825503 0:1706 
1 0:1708 
1 0:1710 
0.4591718681534213 0:1713 
1 0:1715 
1 0:1717 
1 0:1718 
0.9013873728269246 0:1719 
0.5544165787428674 0:1724 
1 0:1725 
1 0:1726 
0.4188365786987325 0:1728 
0.7890498360755742 0:1731 
0.4845683495086293 0:1735 
0.9884428851150577 0:1737 
0.8194408890006252 0:1738 
1 0:1739 
1 0:1745 
0.3033216438771592 0:1746 
1 0:1747 
0.2068277734192481 0:1749 
1 0:1752 
1 0:1754 
0.02509398910061747 0:1755 
1 0:1759 
1 0:1765 
1 0:1768 
1 0:1771 
0.8914303810368212 0:1779 
0.03097797830831076 0:1780 
0.4716430951843291 0:1782 
1 0:1783 
0.2204860867976024 0:1789 
0.3031440820423534 0:1790 
1 0:1791 
0.02718708813712049 0:1796 
1 0:1798 
0.4817241573028162 0:1799 
1 0:1803 
1 0:1806 
0.518984520765431 0:1807 
0.4576225047336603 0:1808 
1 0:1810 
0.828629935185778 0:1813 
1 0:1817 
1 0:1818 
1 0:1820 
0.1307003858972518 0:1821 
0.2990614587904115 0:1823 
1 0:1830 
1 0:1831 
1 0:1834 
1 0:1838 
0.2077859186160768 0:1839 
0.7046713961475101 0:1840 
0.454258452836528 0:1841 
1 0:1842 
0.726628930587899 0:1844 
1 0:1845 
1 0:1851 
1 0:1852 
0.3825508672624692 0:1853 
0.3261711366919833 0:1854 
0.2832015536633889 0:1859 
1 0:1862 
1 0:1863 
1 0:1864 
1 0:1866 
1 0:1867 
1 0:1868 
1 0:1869 
0.6880964241759113 0:1871 
0.5101870581257413 0:1872 
1 0:1874 
1 0:1875 
1 0:1876 
1 0:1877 
0.4937925589063313 0:1880 
1 0:1881 
0.1700582487332557 0:1883 
1 0:1884 
0.4674738092046177 0:1885 
0.562864244200413 0:1887 
1 0:1889 
1 0:1890 
1 0:1893 
0.5241367425006939 0:1894 
1 0:1896 
1 0:1899 
0.6737334773588119 0:1901 
1 0:1902 
1 0:1905 
1 0:1911 
0.08994230433478315 0:1913 
1 0:1916 
0.003566768768994513 0:1921 
0.317028201106534 0:1922 
0.08271050047654689 0:1923 
1 0:1925 
0.7619415971472955 0:1926 
1 0:1929 
1 0:1931 
1 0:1932 
1 0:1935 
0.2992087642376868 0:1937 
1 0:1938 
0.123467951993509 0:1941 
1 0:1942 
1 0:1943 
0.8008143478808135 0:1952 
0.2246723794451401 0:1953 
1 0:1959 
0.5736818747012323 0:1960 
0.5588163221745892 0:1961 
0.5221920043442969 0:1962 
1 0:1963 
0.4172528550203196 0:1964 
0.8443805846737104 0:1966 
0.7479547681228831 0:1967 
1 0:1969 
0.3742839908920398 0:1970 
1 0:1971 
1 0:1974 
1 0:1976 
0.4531832203120027 0:1977 
1 0:1978 
0.7665970376969476 0:1982 
0.5693540780671428 0:1983 
0.02074812007885437 0:1985 
0.2150663258089714 0:1988 
1 0:1989 
0.5151715397916891 0:1991 
1 0:1993 
1 0:1998 
1 0:1999 
0.02320049040361257 0:2001 
1 0:2002 
1 0:2003 
1 0:2004 
1 0:2005 
1 0:2006 
1 0:2007 
1 0:2008 
1 0:2011 
0.7856450716815555 0:2012 
1 0:2016 
0.6836038199373815 0:2017 
0.1943563954244245 0:2018 
1 0:2019 
1 0:2023 
1 0:2024 
0.4265326055183282 0:2026 
1 0:2027 
1 0:2028 
0.4217176144491684 0:2030 
1 0:2031 
0.5219131362129649 0:2032 
0.1971670556967269 0:2035 
0.1253051475836778 0:2039 
0.8376018277431004 0:2043 
1 0:2045 
0.1251060310936976 0:2047 
0.5042319223663089 0:2048 
0.0135353003453151 0:2049 
1 0:2050 
1 0:2051 
1 0:2053 
1 0:2054 
1 0:2056 
0.5624152476525615 0:2057 
1 0:2058 
1 0:2062 
0.528909993646864 0:2063 
0.7426607884486888 0:2065 
0.6100779346970366 0:2066 
0.7981729213872985 0:2070 
1 0:2071 
0.08825756941360317 0:2075 
1 0:2076 
1 0:2077 
1 0:2079 
1 0:2082 
1 0:2084 
0.7749729004640306 0:2085 
1 0:2086 
0.3650474629054033 0:2087 
1 0:2088 
0.5339036631600531 0:2089 
0.3367219078239826 0:2098 
0.2123601012714834 0:2100 
1 0:2103 
0.6245221015068689 0:2107 
1 0:2113 
1 0:2115 
0.1792492405704923 0:2116 
1 0:2117 
1 0:2120 
1 0:2122 
1 0:2123 
1 0:2124 
1 0:2126 
1 0:2130 
0.3971059683369387 0:2131 
0.1550944401511099 0:2135 
0.1405179555234362 0:2138 
0.394866217658118 0:2141 
1 0:2149 
1 0:2151 
1 0:2158 
0.08932313943785365 0:2159 
1 0:2160 
0.5271632086039236 0:2163 
1 0:2166 
0.1819213598125592 0:2167 
1 0:2172 
0.7138477611528928 0:2173 
0.2938713921785698 0:2175 
1 0:2176 
1 0:2177 
1 0:2180 
1 0:2181 
1 0:2182 
0.8162799704853277 0:2185 
0.02326396630005342 0:2187 
1 0:2188 
0.0948759732222188 0:2190 
1 0:2193 
0.9737933401760699 0:2198 
1 0:2202 
0.8393695474825335 0:2205 
1 0:2212 
0.8211895944987836 0:2213 
1 0:2215 
1 0:2217 
0.3144568700212602 0:2218 
1 0:2221 
1 0:2222 
1 0:2225 
1 0:2226 
1 0:2228 
1 0:2229 
1 0:2230 
0.6312571501535439 0:2231 
0.8870825728522275 0:2232 
1 0:2237 
0.1728403304459787 0:2239 
0.2916051416235894 0:2241 
1 0:2243 
0.5758141325730392 0:2246 
1 0:2247 
0.09067190086259194 0:2248 
0.1703335831394316 0:2249 
0.2178386927217916 0:2252 
1 0:2253 
0.1823319626344953 0:2255 
1 0:2256 
0.238357313220313 0:2257 
0.1468738116141249 0:2259 
1 0:2261 
1 0:2266 
1 0:2267 
0.5071942896572637 0:2269 
0.3927292400418689 0:2270 
0.3122471800639218 0:2271 
0.2327083991246425 0:2273 
0.8438328925578785 0:2277 
1 0:2279 
1 0:2280 
1 0:2283 
0.2484315204151332 0:2285 
0.8228352737551157 0:2286 
1 0:2289 
1 0:2294 
0.9164771117411158 0:2295 
0.8120298121952243 0:2297 
0.7852269070339456 0:2298 
0.6444118294356382 0:2301 
1 0:2302 
0.5589906314701637 0:2307 
1 0:2308 
0.4510673480995557 0:2312 
1 0:2317 
1 0:2319 
1 0:2321 
1 0:2323 
1 0:2324 
0.2355745442419011 0:2325 
1 0:2328 
0.4842461666933204 0:2329 
0.4981834637677148 0:2330 
1 0:2332 
1 0:2333 
1 0:2334 
0.0162698030973974 0:2335 
1 0:2338 
1 0:2339 
0.8367005405979931 0:2344 
0.9991528603981172 0:2347 
0.1574863915161951 0:2348 
1 0:2350 
1 0:2352 
0.5298406057991792 0:2357 
0.4380062116771113 0:2358 
0.0504715800633523 0:2359 
1 0:2360 
1 0:2362 
1 0:2365 
1 0:2366 
1 0:2367 
0.8381913450816139 0:2372 
0.9610835401451845 0:2375 
1 0:2377 
1 0:2378 
0.8991266549380932 0:2379 
0.5704117289426565 0:2382 
0.484491626613847 0:2383 
1 0:2388 
0.8623647925832111 0:2389 
0.4047463478113327 0:2393 
0.2699213298105164 0:2396 
0.6517495009270008 0:2397 
1 0:2398 
1 0:2399 
1 0:2401 
0.03127183601978837 0:2405 
0.6980855896353093 0:2406 
0.9988364607126755 0:2407 
0.9716108396928911 0:2408 
1 0:2413 
1 0:2419 
0.2685539686818519 0:2421 
1 0:2422 
0.6755349603577374 0:2424 
1 0:2428 
1 0:2429 
1 0:2430 
1 0:2437 
1 0:2439 
0.06241704124277561 0:2440 
1 0:2446 
0.9972515598931009 0:2448 
0.8761270510319918 0:2449 
0.01198387369029295 0:2456 
1 0:2457 
1 0:2461 
0.4075912594410941 0:2463 
0.8371441156711334 0:2466 
1 0:2467 
1 0:2469 
1 0:2472 
1 0:2473 
0.232244653565849 0:2477 
0.5272572764132276 0:2479 
1 0:2482 
1 0:2486 
1 0:2487 
0.8993906327908965 0:2490 
1 0:2493 
0.0258104864990381 0:2497 
1 0:2499 
1 0:2500 
0.5408176477067417 0:2501 
1 0:2504 
0.78484742180468 0:2505 
1 0:2506 
0.6689091764278318 0:2507 
0.03308959080176031 0:2510 
0.8634269833240137 0:2511 
1 0:2512 
1 0:2513 
0.01922178148723127 0:2514 
0.3499887800622412 0:2518 
1 0:2521 
1 0:2524 
0.7536540438921999 0:2525 
0.3447480380384771 0:2526 
1 0:2527 
1 0:2529 
0.09320299133950628 0:2530 
1 0:2533 
0.7876095934380077 0:2535 
1 0:2537 
1 0:2538 
0.3180257223720537 0:2539 
1 0:2540 
1 0:2544 
0.765278750943102 0:2545 
0.6907776819714977 0:2547 
1 0:2548 
1 0:2550 
1 0:2557 
1 0:2558 
1 0:2559 
0.4552766762082654 0:2560 
0.7131104504778424 0:2565 
0.0402094384031964 0:2566 
1 0:2569 
1 0:2571 
1 0:2572 
1 0:2573 
1 0:2574 
1 0:2575 
0.1449245567225984 0:2578 
0.08871016253311605 0:2583 
1 0:2585 
0.6302210511683063 0:2588 
0.2445886073613872 0:2593 
0.3107602779518457 0:2594 
1 0:2596 
0.1126830335752158 0:2597 
0.2837491677356598 0:2600 
1 0:2603 
1 0:2604 
1 0:2606 
1 0:2607 
0.6816908205150024 0:2609 
0.9625066002372714 0:2612 
1 0:2614 
1 0:2615 
1 0:2617 
1 0:2618 
1 0:2620 
0.468457922852826 0:2621 
1 0:2622 
1 0:2623 
0.06112920848806777 0:2624 
1 0:2625 
1 0:2626 
0.6878089510024022 0:2627 
1 0:2629 
1 0:2630 
0.791719275265907 0:2631 
0.2065150323081484 0:2633 
1 0:2634 
0.9439923099423256 0:2635 
1 0:2637 
0.0531546722980572 0:2641 
0.44876415166086 0:2643 
1 0:2644 
0.2324910757244936 0:2646 
1 0:2647 
0.1829181008499496 0:2654 
0.5106468108208762 0:2656 
1 0:2657 
1 0:2659 
0.6021393366180726 0:2660 
0.5634465760755937 0:2661 
0.4690549592842949 0:2663 
0.03560870858945443 0:2664 
1 0:2665 
0.9635503592157449 0:2668 
0.5667512044324359 0:2670 
1 0:2671 
0.886529742202005 0:2673 
1 0:2675 
0.6398443221240371 0:2679 
0.5673928717013127 0:2681 
1 0:2687 
0.04404349413478929 0:2688 
1 0:2692 
1 0:2694 
1 0:2695 
1 0:2698 
1 0:2699 
1 0:2702 
0.6426223781875749 0:2703 
0.8477024152753099 0:2706 
0.8031358161808827 0:2707 
1 0:2708 
1 0:2709 
0.3051287316460701 0:2711 
0.08968527048904397 0:2715 
1 0:2716 
0.870150863913708 0:2718 
1 0:2719 
1 0:2721 
1 0:2723 
0.183600383996519 0:2724 
1 0:2727 
1 0:2728 
0.6396367386145452 0:2729 
1 0:2732 
1 0:2733 
0.1023256716796338 0:2734 
1 0:2740 
1 0:2741 
1 0:2744 
1 0:2746 
0.6252532922044705 0:2747 
0.915171531794496 0:2748 
0.2913167657983224 0:2751 
1 0:2752 
0.4765392789660619 0:2755 
1 0:2756 
0.4438273123542955 0:2757 
1 0:2761 
0.02082742759331416 0:2762 
0.6009813321586522 0:2763 
0.8375423917015992 0:2764 
1 0:2766 
1 0:2768 
1 0:2774 
0.7533135451091553 0:2775 
0.5464779743350132 0:2776 
1 0:2780 
1 0:2781 
0.6879402249999387 0:2782 
1 0:2784 
0.01615102415973612 0:2785 
0.1488074100668377 0:2787 
1 0:2791 
0.4680127948357638 0:2792 
1 0:2793 
0.542890538714946 0:2798 
0.6827492615001008 0:2800 
1 0:2801 
1 0:2803 
1 0:2805 
0.6680249785542764 0:2806 
0.7893254832141636 0:2807 
0.03710112795216589 0:2808 
0.02564225111156435 0:2809 
0.02486910980247825 0:2811 
0.4502537417275345 0:2812 
0.919253921738397 0:2815 
0.007888225047406702 0:2816 
0.02410423183108062 0:2824 
1 0:2825 
1 0:2826 
1 0:2835 
1 0:2841 
0.4394895960890598 0:2844 
1 0:2846 
1 0:2848 
0.3617823558045434 0:2850 
1 0:2851 
1 0:2853 
1 0:2855 
0.6534072578597321 0:2856 
1 0:2858 
1 0:2862 
1 0:2864 
1 0:2865 
1 0:2869 
0.3297087501632921 0:2870 
0.5361024980695515 0:2875 
1 0:2878 
1 0:2879 
1 0:2881 
1 0:2886 
0.838319395178835 0:2888 
1 0:2889 
0.3592227722220407 0:2892 
0.02045092565780038 0:2895 
0.1971785609673106 0:2896 
1 0:2897 
0.158350713733973 0:2899 
0.2499257854681999 0:2901 
1 0:2902 
0.5687123077904125 0:2905 
0.7333933074202431 0:2906 
1 0:2907 
1 0:2912 
0.6024724543057494 0:2913 
1 0:2915 
1 0:2916 
0.09666993961549332 0:2920 
0.5663414042148329 0:2921 
0.8534662899576503 0:2922 
1 0:2924 
0.2235376882482654 0:2925 
1 0:2929 
1 0:2931 
0.04154367410590117 0:2932 
1 0:2933 
1 0:2934 
0.1436360425293616 0:2937 
1 0:2940 
1 0:2942 
0.05819184876348801 0:2945 
1 0:2946 
0.4335204355567516 0:2949 
1 0:2950 
0.4560266413473748 0:2955 
1 0:2956 
1 0:2959 
1 0:2960 
0.02887780028581241 0:2961 
1 0:2963 
1 0:2964 
0.7532993547425302 0:2965 
0.5785521494225484 0:2967 
1 0:2969 
0.1860904333482497 0:2970 
1 0:2979 
1 0:2984 
0.9838820483483132 0:2985 
1 0:2986 
0.4259397059530925 0:2988 
1 0:2989 
1 0:2990 
0.4256861887760733 0:2992 
1 0:2993 
0.2564607733030723 0:3000 
1 0:3001 
0.9130876970921198 0:3003 
0.6334025865048776 0:3007 
1 0:3009 
0.9472932164708286 0:3010 
1 0:3012 
1 0:3015 
0.4851839323511483 0:3018 
0.04803076659313738 0:3020 
0.6746209802018395 0:3027 
1 0:3028 
1 0:3031 
0.004159363264499911 0:3035 
1 0:3036 
0.637514894989482 0:3038 
0.07017040682338885 0:3040 
1 0:3041 
1 0:3042 
0.1978035146357827 0:3044 
1 0:3049 
1 0:3050 
0.6584314711954897 0:3052 
1 0:3053 
1 0:3054 
0.1465114760976843 0:3055 
1 0:3057 
0.4329467060854959 0:3058 
0.1285458063095178 0:3060 
0.2938467374217703 0:3061 
1 0:3064 
1 0:3065 
1 0:3066 
1 0:3067 
1 0:3068 
1 0:3069 
1 0:3070 
0.02125961041642641 0:3073 
0.646542227041192 0:3075 
1 0:3076 
1 0:3078 
0.5927135591092012 0:3080 
0.4986567129069968 0:3081 
0.7637214349203606 0:3082 
0.1651298233597242 0:3083 
0.2377569626426078 0:3089 
1 0:3092 
1 0:3097 
1 0:3098 
0.2317706953734346 0:3101 
0.3264603462993246 0:3102 
0.8751865058406775 0:3106 
0.9746912921382866 0:3108 
1 0:3110 
1 0:3113 
1 0:3119 
0.27078533109371 0:3120 
1 0:3129 
1 0:3130 
0.880054644129354 0:3131 
1 0:3134 
0.6535353239000874 0:3136 
1 0:3137 
1 0:3140 
1 0:3141 
1 0:3142 
0.6209506738425193 0:3145 
0.4753409241673214 0:3149 
0.8253935197748166 0:3153 
1 0:3155 
1 0:3158 
1 0:3159 
0.6755869775052595 0:3160 
0.4097664873523454 0:3164 
0.2021922649042904 0:3165 
0.6545553776572169 0:3167 
0.6601180720702098 0:3170 
1 0:3172 
1 0:3175 
1 0:3176 
0.4316629799669068 0:3179 
0.2297578630830833 0:3181 
0.3807982206492322 0:3182 
1 0:3188 
1 0:3189 
0.05329968796042649 0:3194 
0.3421706368933618 0:3195 
1 0:3197 
0.7886098682934465 0:3198 
0.4060478049082067 0:3199 
1 0:3200 
0.3717900475048336 0:3201 
1 0:3204 
1 0:3212 
0.1717416716530973 0:3223 
1 0:3224 
0.5056364004874517 0:3225 
1 0:3228 
1 0:3230 
1 0:3233 
1 0:3237 
1 0:3240 
1 0:3246 
0.8904735348529697 0:3250 
1 0:3251 
0.141320902851901 0:3254 
1 0:3255 
1 0:3257 
0.6469275712561193 0:3258 
0.08795405076290558 0:3259 
1 0:3260 
0.6996912458006134 0:3261 
0.3994122258826575 0:3269 
1 0:3271 
1 0:3273 
1 0:3274 
0.4158345106461082 0:3276 
-1 0:3279 
-1 0:3280 
-0.8401556925257592 0:3281 
-1 0:3287 
-1 0:3288 
-1 0:3291 
-0.1658581079517372 0:3294 
-0.03566972838313835 0:3297 
-1 0:3299 
-1 0:3305 
-1 0:3306 
-1 0:3310 
-1 0:3312 
-1 0:3313 
-0.4010603597819448 0:3318 
-1 0:3319 
-1 0:3321 
-1 0:3322 
-1 0:3323 
-1 0:3324 
-1 0:3331 
-0.6196761377219037 0:3333 
-1 0:3335 
-1 0:3340 
-1 0:3345 
-1 0:3346 
-0.1259081001553638 0:3348 
-1 0:3349 
-1 0:3350 
-0.09402935823336109 0:3351 
-0.107092602793936 0:3354 
-1 0:3356 
-1 0:3358 
-1 0:3359 
-1 0:3364 
-0.1498571934694917 0:3366 
-0.3376541525303836 0:3372 
-1 0:3374 
-0.9568061113366366 0:3377 
-1 0:3381 
-1 0:3383 
-1 0:3385 
-1 0:3386 
-0.046210066385662 0:3387 
-0.6149251428344911 0:3389 
-0.01307560522480971 0:3390 
-0.2103353999883459 0:3391 
-1 0:3392 
-1 0:3397 
-1 0:3399 
-0.4980505165589546 0:3405 
-0.3961019093743214 0:3406 
-0.6088613155772662 0:3407 
-1 0:3408 
-1 0:3412 
-0.7145769239500295 0:3418 
-0.2069921494284979 0:3419 
-1 0:3420 
-0.31108650029699 0:3424 
-1 0:3426 
-1 0:3427 
-0.4031226765845685 0:3428 
-0.2114603101991107 0:3431 
-0.03979992035395049 0:3439 
-1 0:3443 
-0.2562234469887946 0:3444 
-0.9843809974732407 0:3446 
-1 0:3451 
-1 0:3452 
-1 0:3453 
-1 0:3454 
-0.5327970774627002 0:3456 
-0.324459198346693 0:3459 
-0.2804997338130054 0:3462 
-0.4435847409636123 0:3463 
-1 0:3466 
-1 0:3467 
-0.8432713595102481 0:3468 
-1 0:3469 
-0.05605883933552307 0:3473 
-0.0286298392832003 0:3474 
-0.5523538828881925 0:3476 
-0.9504241905171424 0:3482 
-1 0:3483 
-0.7814440108284999 0:3486 
-1 0:3487 
-0.8361955373995141 0:3488 
-0.1491243414989292 0:3491 
-1 0:3492 
-1 0:3500 
-1 0:3503 
-0.9025826039676437 0:3504 
-0.004323062229435562 0:3508 
-1 0:3509 
-1 0:3510 
-1 0:3511 
-1 0:3512 
-1 0:3515 
-1 0:3516 
-0.7640457909102001 0:3518 
-1 0:3521 
-0.8033615390299048 0:3522 
-0.7310980007819059 0:3524 
-0.6787587340296263 0:3527 
-0.817349170481499 0:3529 
-1 0:3530 
-0.4335978977593696 0:3531 
-1 0:3532 
-0.609832797162095 0:3533 
-0.5224992783891385 0:3535 
-0.5466757840063862 0:3537 
-1 0:3538 
-0.9544540079137963 0:3539 
-1 0:3540 
-1 0:3541 
-1 0:3543 
-0.6024413223422592 0:3544 
-1 0:3545 
-1 0:3546 
-0.785131976820023 0:3551 
-1 0:3552 
-1 0:3553 
-0.3786899429924027 0:3555 
-0.6859250877432135 0:3556 
-1 0:3564 
-1 0:3565 
-1 0:3569 
-0.7397245973764511 0:3570 
-1 0:3572 
-0.6790473733744821 0:3573 
-1 0:3574 
-0.4179998023784922 0:3576 
-0.6258066113218985 0:3580 
-0.7844103212778355 0:3581 
-0.4488563093223567 0:3582 
-1 0:3590 
-1 0:3591 
-1 0:3596 
-0.006519560065631228 0:3597 
-0.0943681529953512 0:3599 
-1 0:3601 
-1 0:3602 
-1 0:3605 
-0.3069346510803486 0:3606 
-0.7544924763570009 0:3607 
-1 0:3608 
-0.009881279103081241 0:3611 
-1 0:3612 
-0.3059743237418647 0:3613 
-0.8773632881069869 0:3617 
-0.09915368076618633 0:3618 
-0.2200410195372762 0:3619 
-0.4116740003049717 0:3622 
-1 0:3625 
-0.0277311284641821 0:3626 
-0.3332009840039321 0:3628 
-1 0:3629 
-1 0:3633 
-1 0:3635 
-1 0:3636 
-0.3287638259802214 0:3638 
-0.3169248144460582 0:3642 
-0.9979619816595592 0:3643 
-0.1307045199511876 0:3647 
-0.6618245143547643 0:3648 
-0.8008977735509367 0:3651 
-0.995004805762333 0:3653 
-1 0:3654 
-1 0:3655 
-1 0:3659 
-1 0:3661 
-1 0:3663 
-0.4596348645310664 0:3672 
-0.1085227951194979 0:3673 
-1 0:3674 
-0.2825668682616941 0:3675 
-0.3620727219126568 0:3680 
-0.2211259292752484 0:3681 
-0.1368949636378011 0:3683 
-1 0:3684 
-1 0:3686 
-0.1128467103003138 0:3690 
-1 0:3695 
-1 0:3698 
-1 0:3700 
-0.4893093291468554 0:3707 
-0.5966349736336855 0:3708 
-0.74724108265846 0:3709 
-1 0:3710 
-0.8284627300140704 0:3719 
-0.4233253616744638 0:3721 
-0.3581144481342591 0:3724 
-1 0:3725 
-0.2227862594036639 0:3729 
-1 0:3732 
-1 0:3733 
-0.3988773766825681 0:3734 
-1 0:3735 
-1 0:3736 
-1 0:3739 
-0.7602517243004444 0:3742 
-1 0:3743 
-0.5534961639697789 0:3745 
-0.3312538540873251 0:3746 
-0.7614981780973155 0:3747 
-1 0:3748 
-1 0:3750 
-1 0:3755 
-1 0:3762 
-1 0:3763 
-1 0:3764 
-1 0:3765 
-1 0:3766 
-1 0:3767 
-1 0:3769 
-1 0:3770 
-1 0:3771 
-1 0:3772 
-0.5165139798381321 0:3774 
-0.6695877007257258 0:3775 
-1 0:3780 
-1 0:3782 
-1 0:3785 
-1 0:3786 
-1 0:3787 
-1 0:3788 
-1 0:3790 
-0.9408217441969807 0:3791 
-1 0:3793 
-0.5240450414225787 0:3797 
-0.4423538963431363 0:3798 
-1 0:3799 
-0.4746578155115903 0:3801 
-1 0:3802 
-1 0:3803 
-1 0:3804 
-0.4960634643580245 0:3805 
-0.1871296494775881 0:3808 
-1 0:3809 
-1 0:3811 
-1 0:3813 
-1 0:3814 
-0.5403937286181103 0:3815 
-1 0:3816 
-1 0:3818 
-0.9174593378402103 0:3821 
-1 0:3830 
-0.7825939147816451 0:3831 
-1 0:3832 
-1 0:3833 
-0.9348213800985726 0:3838 
-1 0:3839 
-1 0:3840 
-0.5293052066116113 0:3843 
-1 0:3845 
-1 0:3846 
-1 0:3847 
-1 0:3850 
-0.04166886714585333 0:3851 
-1 0:3852 
-1 0:3853 
-1 0:3858 
-1 0:3859 
-0.02057613065536104 0:3862 
-0.08687795839014194 0:3863 
-1 0:3867 
-1 0:3872 
-1 0:3874 
-1 0:3875 
-1 0:3876 
-1 0:3877 
-1 0:3879 
-0.3553357668093443 0:3881 
-1 0:3882 
-1 0:3884 
-1 0:3885 
-0.02174038460703617 0:3886 
-1 0:3890 
-1 0:3893 
-0.07843135438272653 0:3896 
-1 0:3898 
-0.5044805590133181 0:3900 
-1 0:3901 
-1 0:3904 
-0.7851761320491893 0:3905 
-1 0:3909 
-0.5146973866485208 0:3911 
-1 0:3912 
-1 0:3913 
-0.9061611211047055 0:3915 
-1 0:3918 
-1 0:3919 
-1 0:3920 
-1 0:3921 
-0.6745609541917942 0:3922 
-0.7377574720798675 0:3923 
-1 0:3925 
-0.9619474829116728 0:3927 
-0.7460007386151336 0:3928 
-0.7618048963906375 0:3931 
-0.1600400353952025 0:3933 
-0.9902143311972861 0:3934 
-1 0:3938 
-0.4792170011334028 0:3941 
-1 0:3944 
-0.6635837495366148 0:3948 
-1 0:3951 
-1 0:3956 
-0.005002909607293976 0:3957 
-0.9114148828325573 0:3958 
-1 0:3960 
-1 0:3965 
-1 0:3967 
-1 0:3969 
-0.07370089263908289 0:3976 
-1 0:3977 
-1 0:3983 
-1 0:3985 
-0.590720991461661 0:3987 
-0.7149566714592344 0:3988 
-1 0:3989 
-0.514713597128007 0:3990 
-1 0:3993 
-1 0:3994 
-1 0:3998 
-1 0:4001 
-1 0:4003 
-1 0:4005 
-1 0:4012 
-1 0:4013 
-0.7263158596735659 0:4015 
-0.7079973970494424 0:4016 
-1 0:4017 
-1 0:4018 
-1 0:4020 
-0.6075784565069217 0:4021 
-1 0:4023 
-0.8150755253009226 0:4025 
-0.0993997740230608 0:4026 
-0.4382878598620363 0:4027 
-0.8830485601183792 0:4029 
-1 0:4030 
-1 0:4043 
-1 0:4044 
-0.8058230640703259 0:4049 
-1 0:4053 
-1 0:4054 
-1 0:4059 
-1 0:4061 
-0.1745935705605834 0:4067 
-0.8501609624128871 0:4068 
-1 0:4069 
-1 0:4071 
-0.7913501481438359 0:4073 
-1 0:4074 
-0.5579753757516512 0:4075 
-1 0:4077 
-1 0:4079 
-1 0:4082 
-1 0:4084 
-1 0:4089 
-1 0:4095 
-1 0:4096 
-0.8424947441133219 0:4097 
-0.7370949925772351 0:4101 
-1 0:4102 
-1 0:4105 
-0.4934559207383091 0:4109 
-0.2355682399901659 0:4110 
-0.4425533977287536 0:4111 
-1 0:4112 
-1 0:4113 
-0.3167189508386629 0:4114 
-0.1628524929159573 0:4115 
-1 0:4118 
-1 0:4119 
-0.3090185860908191 0:4120 
-1 0:4121 
-0.7188362922757709 0:4123 
-0.503668773928886 0:4126 
-0.8556750946943196 0:4129 
-1 0:4131 
-0.8338253220876526 0:4132 
-1 0:4134 
-0.4773512293317623 0:4136 
-0.1423779106372779 0:4143 
-1 0:4146 
-0.3724367358437847 0:4147 
-1 0:4153 
-1 0:4155 
-1 0:4157 
-0.7084188346225243 0:4158 
-1 0:4162 
-1 0:4163 
-0.1492108503956759 0:4164 
-1 0:4165 
-0.9432682924130088 0:4167 
-1 0:4169 
-1 0:4177 
-0.2212051728207582 0:4179 
-0.4588063926139624 0:4182 
-0.6022857266622665 0:4183 
-0.2599555911188671 0:4189 
-0.4138690670773678 0:4190 
-1 0:4191 
-0.8020470333672727 0:4193 
-1 0:4194 
-1 0:4195 
-0.3902105256802108 0:4197 
-1 0:4198 
-1 0:4199 
-1 0:4201 
-0.6043966956147246 0:4202 
-1 0:4204 
-1 0:4207 
-1 0:4212 
-1 0:4216 
-1 0:4218 
-1 0:4220 
-0.2013547576556168 0:4222 
-1 0:4224 
-1 0:4226 
-1 0:4227 
-1 0:4228 
-0.7362423809456334 0:4229 
-0.2812698505804281 0:4233 
-1 0:4234 
-1 0:4239 
-0.15982201748864 0:4242 
-0.4914347444975321 0:4243 
-0.9195567468925003 0:4244 
-0.1356175124792277 0:4247 
-0.1219820750383105 0:4248 
-0.5410071395927734 0:4253 
-1 0:4254 
-0.4556708649955751 0:4257 
-1 0:4262 
-1 0:4264 
-1 0:4266 
-1 0:4268 
-1 0:4269 
-1 0:4275 
-1 0:4278 
-0.4434948911101124 0:4279 
-1 0:4280 
-1 0:4281 
-1 0:4282 
-0.9675752602930457 0:4283 
-0.2107208092945083 0:4285 
-0.177857702795434 0:4286 
-0.3275101690463421 0:4287 
-1 0:4291 
-0.5042851345494743 0:4292 
-1 0:4293 
-1 0:4294 
-1 0:4295 
-1 0:4296 
-0.5237268750212998 0:4297 
-0.7634863557748742 0:4298 
-1 0:4300 
-1 0:4303 
-1 0:4307 
-1 0:4309 
-0.386560489952429 0:4310 
-0.08771004652316172 0:4312 
-1 0:4315 
-1 0:4319 
-0.3642938418131088 0:4322 
-0.5222520656208287 0:4325 
-0.6163399078876098 0:4334 
-1 0:4335 
-0.9434541027532045 0:4339 
-0.3131273130631991 0:4341 
-1 0:4343 
-1 0:4345 
-0.979592222011327 0:4346 
-1 0:4348 
-0.1076724593678686 0:4351 
-0.5712254318125264 0:4353 
-1 0:4354 
-0.455576668861673 0:4355 
-0.5075767939845591 0:4357 
-1 0:4358 
-1 0:4360 
-1 0:4363 
-1 0:4366 
-1 0:4368 
-0.7464369218903165 0:4369 
-1 0:4372 
-1 0:4373 
-0.8746450905735466 0:4375 
-1 0:4376 
-0.3095715747766384 0:4378 
-1 0:4379 
-0.1568041171119406 0:4383 
-1 0:4386 
-0.4690956370239494 0:4387 
-1 0:4389 
-1 0:4393 
-0.4822988763578568 0:4395 
-1 0:4396 
-1 0:4400 
-1 0:4401 
-1 0:4402 
-1 0:4405 
-0.6798507268892001 0:4408 
-1 0:4409 
-1 0:4410 
-1 0:4413 
-1 0:4414 
-1 0:4417 
-0.959590434418704 0:4418 
-1 0:4419 
-0.9691930961887213 0:4421 
-1 0:4422 
-0.3676693461591878 0:4425 
-0.1976863254498305 0:4427 
-0.1672535236760682 0:4429 
-1 0:4430 
-1 0:4431 
-0.8130940919769443 0:4433 
-0.8696403481448238 0:4434 
-0.06052931696781835 0:4435 
-1 0:4437 
-1 0:4438 
-1 0:4439 
-0.6256765478237853 0:4443 
-1 0:4444 
-1 0:4445 
-1 0:4449 
-1 0:4451 
-1 0:4453 
-0.4833621307796391 0:4456 
-1 0:4457 
-1 0:4458 
-1 0:4459 
-1 0:4460 
-0.3346874418289479 0:4461 
-1 0:4468 
-1 0:4470 
-1 0:4473 
-1 0:4476 
-0.07986834568787354 0:4478 
-1 0:4479 
-1 0:4482 
-0.7039502957890398 0:4483 
-0.5226786664608908 0:4485 
-1 0:4488 
-1 0:4489 
-0.3951535349951439 0:4493 
-0.1339603720505776 0:4494 
-1 0:4495 
-0.9129996999915646 0:4502 
-1 0:4504 
-1 0:4505 
-1 0:4509 
-1 0:4511 
-1 0:4516 
-0.838654719921097 0:4519 
-1 0:4520 
-0.181992794023115 0:4521 
-1 0:4525 
-0.7770136942970504 0:4530 
-1 0:4534 
-1 0:4535 
-1 0:4539 
-1 0:4540 
-1 0:4541 
-0.04477992937121478 0:4542 
-1 0:4546 
-0.1779267769264332 0:4550 
-0.1493378150748969 0:4553 
-1 0:4554 
-0.7095238005148904 0:4555 
-1 0:4564 
-0.9017066700100484 0:4565 
-1 0:4570 
-0.1304680639570068 0:4582 
-1 0:4583 
-1 0:4586 
-0.1473345054658363 0:4587 
-1 0:4588 
-1 0:4589 
-1 0:4590 
-0.9508266482906523 0:4591 
-1 0:4593 
-1 0:4594 
-1 0:4598 
-1 0:4602 
-1 0:4604 
-0.5070556795605841 0:4605 
-0.005024916591641337 0:4608 
-0.131930167608941 0:4611 
-1 0:4612 
-1 0:4614 
-1 0:4617 
-0.5410874626116793 0:4619 
-0.3958429990566299 0:4620 
-0.5996073422292878 0:4621 
-0.9652642024144177 0:4623 
-1 0:4624 
-0.4401485347919684 0:4626 
-1 0:4628 
-0.8420900650724122 0:4629 
-0.306188903137194 0:4632 
-0.9852583137446599 0:4635 
-0.4218568796586452 0:4636 
-1 0:4640 
-0.03142543088417539 0:4641 
-0.2835268287054155 0:4644 
-1 0:4654 
-0.06432234429995748 0:4655 
-1 0:4656 
-1 0:4661 
-0.7444063752473038 0:4664 
-1 0:4666 
-0.8323373710227941 0:4668 
-1 0:4672 
-0.6467376145468924 0:4675 
-0.4690445522723726 0:4679 
-1 0:4680 
-0.9688466541741905 0:4681 
-0.7349399624255083 0:4685 
-1 0:4686 
-1 0:4687 
-0.3225999161335439 0:4690 
-1 0:4692 
-1 0:4694 
-1 0:4698 
-0.5957310353646399 0:4699 
-0.5686804156780193 0:4702 
-1 0:4704 
-1 0:4705 
-0.4159493935036394 0:4708 
-0.9329794450686333 0:4709 
-0.5526792331786241 0:4712 
-1 0:4713 
-1 0:4717 
-1 0:4719 
-0.5888150406879135 0:4720 
-0.6122490609966007 0:4722 
-0.09698031096202632 0:4724 
-1 0:4726 
-1 0:4728 
-0.02246528821087449 0:4729 
-0.2988590572853623 0:4733 
-0.8543545493348818 0:4737 
-1 0:4741 
-1 0:4748 
-1 0:4750 
-0.07885063668256888 0:4751 
-0.3591849419116183 0:4753 
-0.2403891334630819 0:4754 
-1 0:4755 
-1 0:4756 
-1 0:4759 
-0.7414105620831614 0:4761 
-1 0:4765 
-0.6666857402555699 0:4767 
-1 0:4770 
-0.07762119442003519 0:4771 
-1 0:4773 
-0.8578362708392211 0:4775 
-1 0:4776 
-0.5223440651256878 0:4777 
-1 0:4779 
-1 0:4781 
-0.4491901216801943 0:4782 
-0.1515603619362561 0:4783 
-0.660146351834368 0:4784 
-1 0:4788 
-0.8644344000675462 0:4791 
-1 0:4794 
-1 0:4796 
-0.4937831466325674 0:4797 
-1 0:4800 
-1 0:4803 
-1 0:4804 
-1 0:4805 
-1 0:4806 
-0.5673128013470007 0:4809 
-1 0:4813 
-0.5592781736015175 0:4818 
-1 0:4821 
-0.05521114762943807 0:4822 
-1 0:4823 
-0.1998685747027041 0:4825 
-0.6111361294082249 0:4826 
-0.1933510054065237 0:4827 
-0.561635396820484 0:4829 
-1 0:4830 
-0.3505338276335127 0:4846 
-1 0:4848 
-1 0:4851 
-0.2124587657918187 0:4852 
-0.03385997846977303 0:4855 
-1 0:4858 
-0.7355598103307031 0:4859 
-0.3600979264691113 0:4860 
-0.9237576454160885 0:4861 
-1 0:4862 
-0.8736938905960389 0:4866 
-1 0:4868 
-1 0:4872 
-0.6136257337140362 0:4873 
-1 0:4875 
-1 0:4877 
-1 0:4882 
-1 0:4883 
-1 0:4886 
-1 0:4890 
-0.8683122333625817 0:4891 
-1 0:4894 
-0.3670963005240203 0:4895 
-1 0:4896 
-1 0:4898 
-1 0:4899 
-0.3641540157418875 0:4901 
-1 0:4902 
-1 0:4903 
-0.8335022184279464 0:4904 
-0.2380157979946229 0:4906 
-1 0:4910 
-1 0:4912 
-0.6830451084136024 0:4914 
-1 0:4915 
-0.981390456120781 0:4916 
-1 0:4917 
-1 0:4919 
-1 0:4921 
-0.4048624317127924 0:4924 
-1 0:4925 
-0.803314550269123 0:4927 
-1 0:4930 
-1 0:4931 
-1 0:4935 
-1 0:4937 
-1 0:4938 
-0.8677542007124535 0:4940 
-1 0:4941 
-1 0:4947 
-0.4095079513147153 0:4949 
-1 0:4956 
-1 0:4957 
-1 0:4958 
-1 0:4960 
-0.4831163544823563 0:4963 
-0.1900820086105407 0:4964 
-1 0:4965 
-1 0:4966 
-0.8301778029071727 0:4971 
-0.3616740529003135 0:4972 
-0.0113573947692315 0:4976 
-0.3937020601619812 0:4979 
-0.6111888288498014 0:4982 
-0.8338772824424189 0:4988 
-0.3771290056014661 0:4990 
-0.2713713917770766 0:4993 
-0.7916299839752945 0:4995 
-0.2615295835872097 0:4996 
-1 0:5001 
-1 0:5005 
-0.7575883474473415 0:5006 
-0.3355549168444634 0:5007 
-0.151982817936388 0:5009 
-0.3701142231246193 0:5015 
-1 0:5017 
-1 0:5021 
-1 0:5025 
-0.7301730618489989 0:5026 
-1 0:5028 
-0.6347394153175204 0:5031 
-0.1094946135427965 0:5033 
-1 0:5035 
-0.2011663921898581 0:5037 
-1 0:5041 
-1 0:5042 
-0.2422868420983805 0:5044 
-0.6277852183199837 0:5048 
-1 0:5051 
-1 0:5052 
-0.458903150558836 0:5054 
-1 0:5057 
-1 0:5059 
-0.8625882523443804 0:5060 
-0.2435544812643365 0:5063 
-1 0:5065 
-1 0:5067 
-1 0:5069 
-1 0:5070 
-0.9987376415456374 0:5072 
-1 0:5073 
-0.3523902499470755 0:5074 
-1 0:5075 
-1 0:5077 
-1 0:5078 
-1 0:5079 
-1 0:5080 
-0.8844789414368773 0:5081 
-1 0:5086 
-1 0:5088 
-1 0:5089 
-0.4696495340000443 0:5090 
-1 0:5095 
-1 0:5100 
-1 0:5102 
-0.5906890743063394 0:5103 
-0.5084976203419277 0:5105 
-0.1792733067157611 0:5106 
-0.5902620495591828 0:5108 
-1 0:5111 
-0.6437951989924767 0:5115 
-1 0:5116 
-1 0:5120 
-1 0:5121 
-0.03793079374666765 0:5123 
-1 0:5124 
-0.0368215539890601 0:5126 
-0.4521469099006862 0:5129 
-0.7580890947735409 0:5132 
-1 0:5135 
-0.5425444963949577 0:5138 
-0.934359085092796 0:5140 
-0.7457753840115988 0:5145 
-1 0:5149 
-1 0:5150 
-1 0:5151 
-1 0:5153 
-1 0:5159 
-0.8469824935527491 0:5161 
-0.08435641070360285 0:5162 
-1 0:5164 
-1 0:5167 
-0.3741256321058803 0:5168 
-1 0:5172 
-1 0:5174 
-0.298522498739884 0:5175 
-0.356832052862397 0:5178 
-1 0:5179 
-1 0:5181 
-1 0:5182 
-1 0:5183 
-1 0:5184 
-0.3655210538669067 0:5186 
-0.2271235698122758 0:5191 
-0.06803237905422505 0:5192 
-0.2083563275447003 0:5196 
-0.296844554496276 0:5199 
-1 0:5202 
-0.2793244313855174 0:5203 
-0.06079599183140318 0:5205 
-1 0:5208 
-1 0:5212 
-1 0:5213 
-1 0:5214 
-0.3427183123367085 0:5215 
-1 0:5219 
-0.8169421100209582 0:5221 
-1 0:5223 
-0.7654313457030553 0:5224 
-0.437220160769851 0:5225 
-0.08079993539190129 0:5228 
-1 0:5230 
-1 0:5232 
-1 0:5234 
-1 0:5235 
-0.4681635201800496 0:5238 
-0.9423354224602473 0:5239 
-1 0:5240 
-1 0:5242 
-1 0:5244 
-0.2687671081510999 0:5245 
-1 0:5246 
-0.8088899540498842 0:5249 
-1 0:5254 
-0.01389901173081847 0:5256 
-0.4332930278949255 0:5258 
-1 0:5259 
-1 0:5262 
-0.6591095164857357 0:5263 
-1 0:5264 
-1 0:5267 
-1 0:5268 
-1 0:5269 
-1 0:5274 
-0.1484318644281637 0:5276 
-0.5585114736826254 0:5277 
-0.1270892439542823 0:5278 
-0.6966103566209769 0:5281 
-1 0:5282 
-0.4215731345862969 0:5283 
-1 0:5285 
-1 0:5292 
-0.6036358132222404 0:5295 
-1 0:5299 
-0.2066718508972954 0:5303 
-1 0:5305 
-0.3216132725465763 0:5306 
-1 0:5309 
-0.3538019626590294 0:5314 
-0.6378053163961139 0:5315 
-1 0:5317 
-1 0:5319 
-1 0:5320 
-1 0:5321 
-1 0:5322 
-1 0:5323 
-0.7129213871607203 0:5324 
-1 0:5326 
-0.763975252608987 0:5327 
-0.8525917589862531 0:5328 
-0.3963885405181606 0:5329 
-1 0:5330 
-1 0:5332 
-0.741836424730653 0:5335 
-0.2344628834190132 0:5336 
-0.01220301130912648 0:5342 
-0.04832176517796521 0:5345 
-1 0:5348 
-0.9989682633282617 0:5353 
-1 0:5355 
-1 0:5356 
-1 0:5358 
-1 0:5359 
-1 0:5360 
-0.4306099232908941 0:5362 
-0.7517194743440073 0:5364 
-0.4944460033128811 0:5366 
-1 0:5372 
-1 0:5373 
-1 0:5376 
-1 0:5379 
-1 0:5381 
-1 0:5382 
-1 0:5384 
-1 0:5390 
-1 0:5391 
-1 0:5394 
-1 0:5396 
-1 0:5399 
-1 0:5402 
-1 0:5404 
-1 0:5405 
-1 0:5407 
-1 0:5408 
-0.6234866708345951 0:5410 
-1 0:5413 
-1 0:5414 
-1 0:5417 
-0.324251796771118 0:5418 
-1 0:5421 
-1 0:5423 
-0.959682576546135 0:5426 
-1 0:5429 
-1 0:5431 
-0.4087420138760757 0:5433 
-1 0:5434 
-0.4172268242447219 0:5436 
-0.814568445472718 0:5437 
-1 0:5439 
-1 0:5441 
-0.8288193948236524 0:5443 
-1 0:5445 
-1 0:5446 
-0.6155641865981627 0:5447 
-0.9314667280245583 0:5452 
-1 0:5453 
-1 0:5456 
-1 0:5457 
-1 0:5458 
-1 0:5462 
-0.7132299220982863 0:5463 
-1 0:5466 
-1 0:5467 
-1 0:5471 
-1 0:5475 
-1 0:5479 
-0.9406674927511066 0:5488 
-1 0:5489 
-0.1481058739924315 0:5490 
-0.09184355517348274 0:5491 
-0.09062532182160878 0:5495 
-0.1001412722764552 0:5497 
-0.8884271019066393 0:5498 
-1 0:5501 
-1 0:5503 
-0.9147975500817461 0:5504 
-0.5355622948997081 0:5506 
-0.3668403226022886 0:5508 
-1 0:5509 
-0.1260141970439876 0:5512 
-0.5309191272475694 0:5517 
-1 0:5530 
-0.05644264739598269 0:5531 
-0.3022592552798894 0:5532 
-1 0:5533 
-1 0:5538 
-0.9220270873804544 0:5539 
-0.3973494271618644 0:5542 
-1 0:5543 
-1 0:5549 
-0.9803442944305437 0:5551 
-0.09672511697921223 0:5552 
-0.2411672346755373 0:5553 
-1 0:5558 
-0.3008265248709354 0:5562 
-0.9797423445155129 0:5563 
-1 0:5564 
-1 0:5566 
-1 0:5574 
-1 0:5576 
-0.4210654433521073 0:5579 
-0.675597780163086 0:5582 
-0.7999922561222464 0:5584 
-1 0:5585 
-1 0:5586 
-1 0:5594 
-1 0:5598 
-1 0:5599 
-1 0:5601 
-0.3550523526041927 0:5602 
-1 0:5604 
-1 0:5606 
-1 0:5610 
-0.6123655382576579 0:5613 
-1 0:5615 
-1 0:5619 
-0.3014107670289609 0:5621 
-1 0:5623 
-1 0:5624 
-1 0:5626 
-1 0:5634 
-1 0:5638 
-0.8809984282569049 0:5640 
-0.016448201319996 0:5641 
-0.4043783884644909 0:5643 
-1 0:5645 
-1 0:5649 
-0.8261840066560326 0:5652 
-1 0:5653 
-1 0:5654 
-1 0:5657 
-1 0:5658 
-0.9279414360871647 0:5661 
-0.4356119604643271 0:5664 
-1 0:5665 
-0.9241639213888568 0:5668 
-1 0:5670 
-1 0:5678 
-1 0:5682 
-0.1012764411227617 0:5688 
-1 0:5692 
-1 0:5695 
-1 0:5697 
-0.1070550297349727 0:5701 
-0.3232474326388355 0:5702 
-1 0:5704 
-1 0:5706 
-0.06627294786862456 0:5709 
-1 0:5713 
-0.3362393087834731 0:5714 
-1 0:5715 
-1 0:5718 
-0.7333483265893912 0:5720 
-1 0:5722 
-0.6180559860028056 0:5724 
-1 0:5725 
-1 0:5726 
-1 0:5730 
-1 0:5732 
-1 0:5733 
-0.6578070802874471 0:5741 
-0.5547509971617834 0:5745 
-1 0:5749 
-1 0:5752 
-1 0:5755 
-0.4364886247738293 0:5757 
-0.7592409999588112 0:5761 
-1 0:5764 
-1 0:5765 
-0.4900406479179941 0:5769 
-1 0:5770 
-1 0:5771 
-1 0:5774 
-0.9909454283091987 0:5777 
-0.6883881900281769 0:5778 
-1 0:5782 
-1 0:5783 
-0.2161767292721174 0:5784 
-0.173187372613016 0:5786 
-1 0:5787 
-1 0:5790 
-0.06883040777306305 0:5794 
-0.8717655270832418 0:5795 
-1 0:5797 
-1 0:5798 
-0.2407110324481996 0:5799 
-1 0:5802 
-1 0:5803 
-0.2087870229872583 0:5804 
-1 0:5806 
-0.7953069627601925 0:5807 
-1 0:5809 
-0.7626357421281413 0:5810 
-1 0:5812 
-0.2017134269247518 0:5815 
-0.5819700767918744 0:5817 
-1 0:5818 
-0.7094597834477103 0:5819 
-1 0:5821 
-0.5446668357409037 0:5822 
-0.02302006283614254 0:5823 
-0.9386229202637012 0:5824 
-0.8258965542904299 0:5825 
-0.08198003487225214 0:5827 
-1 0:5828 
-1 0:5829 
-1 0:5831 
-1 0:5835 
-0.7052087791843036 0:5839 
-1 0:5843 
-0.4464081261913284 0:5844 
-1 0:5848 
-0.5177012545653141 0:5852 
-1 0:5857 
-1 0:5859 
-1 0:5861 
-1 0:5862 
-1 0:5863 
-1 0:5867 
-0.5053625294071686 0:5871 
-1 0:5872 
-0.6336155961996105 0:5873 
-0.1523512485047067 0:5874 
-0.9476695380568197 0:5876 
-0.3781959224719909 0:5884 
-0.4046162809889911 0:5886 
-0.3479029550619325 0:5889 
-0.06878819069551487 0:5891 
-0.7320847840116581 0:5892 
-0.5778674722473542 0:5893 
-0.9626195677569376 0:5897 
-0.3070840803617801 0:5900 
-1 0:5902 
-0.4499383087213724 0:5906 
-1 0:5911 
-1 0:5912 
-0.6446954805040538 0:5915 
-1 0:5916 
-1 0:5919 
-1 0:5923 
-0.4013037599171498 0:5925 
-0.7994560231774613 0:5929 
-1 0:5930 
-0.2764199591888934 0:5931 
-1 0:5932 
-1 0:5934 
-0.4264219669568946 0:5941 
-1 0:5942 
-1 0:5946 
-1 0:5947 
-1 0:5951 
-0.5008224360035314 0:5955 
-1 0:5958 
-0.3633948275162578 0:5959 
-1 0:5960 
-1 0:5961 
-0.1487215984426566 0:5965 
-0.4935009468269713 0:5966 
-1 0:5967 
-1 0:5968 
-0.0262550928767759 0:5971 
-0.781701650970939 0:5972 
-1 0:5974 
-1 0:5976 
-1 0:5977 
-1 0:5980 
-1 0:5981 
-0.9594459638702817 0:5982 
-1 0:5984 
-0.006397886100205461 0:5985 
-1 0:5988 
-1 0:5992 
-1 0:5993 
-1 0:5996 
-1 0:6002 
-1 0:6004 
-1 0:6007 
-0.0695175410649914 0:6008 
-0.5040585251057486 0:6009 
-1 0:6010 
-1 0:6013 
-1 0:6016 
-1 0:6017 
-1 0:6025 
-0.8998154803343154 0:6026 
-1 0:6029 
-0.8755490720833087 0:6030 
-0.8177107556401348 0:6031 
-1 0:6035 
-1 0:6038 
-0.2955647594151946 0:6039 
-1 0:6040 
-1 0:6043 
-1 0:6044 
-1 0:6045 
-0.1471029469288191 0:6046 
-0.284613395555857 0:6048 
-1 0:6052 
-0.9371769642679416 0:6054 
-1 0:6059 
-1 0:6060 
-0.1370665481982963 0:6061 
-0.571010914231344 0:6064 
-0.2305627814900375 0:6065 
-0.1308868402985792 0:6068 
-1 0:6071 
-1 0:6074 
-0.1351398518936651 0:6075 
-1 0:6078 
-1 0:6081 
-0.2967497428414858 0:6082 
-1 0:6083 
-1 0:6085 
-1 0:6088 
-1 0:6089 
-1 0:6091 
-1 0:6095 
-1 0:6096 
-0.3896622457376627 0:6099 
-1 0:6100 
-0.528000953703989 0:6101 
-0.6786237348364657 0:6106 
-1 0:6107 
-0.4400847420809998 0:6109 
-0.07140206414411419 0:6110 
-0.6029009436754228 0:6112 
-1 0:6117 
-0.9594658045234982 0:6118 
-1 0:6119 
-0.6526047965056926 0:6120 
-0.1889208709834576 0:6121 
-0.4123422536340209 0:6122 
-0.505380260550352 0:6124 
-1 0:6127 
-1 0:6128 
-0.977099417092769 0:6130 
-1 0:6131 
-1 0:6135 
-1 0:6136 
-1 0:6138 
-1 0:6144 
-0.301313377820873 0:6145 
-0.6176669475023256 0:6147 
-0.7831862982980438 0:6148 
-0.3635650880068388 0:6156 
-1 0:6157 
-0.4198405407355763 0:6160 
-1 0:6161 
-0.216476795631124 0:6166 
-1 0:6167 
-1 0:6168 
-1 0:6169 
-1 0:6172 
-0.1888130657175686 0:6175 
-1 0:6176 
-1 0:6177 
-1 0:6178 
-0.6648744592451851 0:6180 
-1 0:6181 
-1 0:6183 
-1 0:6187 
-0.9311347038394582 0:6190 
-1 0:6192 
-1 0:6195 
-0.6628290566958188 0:6198 
-0.4319261186218804 0:6199 
-1 0:6200 
-0.6066063600764935 0:6202 
-1 0:6204 
-1 0:6206 
-1 0:6211 
-0.5238578042089087 0:6212 
-1 0:6213 
-0.8336389192670631 0:6214 
-0.2598702120800204 0:6218 
-0.7933156413360057 0:6219 
-1 0:6222 
-0.2464498097981284 0:6229 
-0.4628141199507227 0:6230 
-1 0:6232 
-0.5372002891357879 0:6234 
-1 0:6235 
-1 0:6236 
-1 0:6238 
-1 0:6245 
-1 0:6256 
-0.1814843084093268 0:6257 
-1 0:6259 
-0.6604167298413642 0:6260 
-0.4410639899784333 0:6262 
-0.6603205835416138 0:6264 
-1 0:6265 
-0.1907847583288614 0:6268 
-1 0:6270 
-0.8779238573038338 0:6271 
-0.08777263715377501 0:6277 
-0.5924194632121738 0:6280 
-1 0:6281 
-1 0:6285 
-1 0:6287 
-0.9366325765436064 0:6288 
-0.434460913970386 0:6293 
-1 0:6294 
-0.9517832745080462 0:6298 
-1 0:6299 
-1 0:6300 
-0.388019567508934 0:6301 
-0.6539895369926378 0:6302 
-1 0:6304 
-1 0:6305 
-1 0:6311 
-1 0:6313 
-1 0:6314 
-1 0:6315 
-0.19916423112089 0:6317 
-0.2414074860806473 0:6320 
-0.0360009598437792 0:6321 
-1 0:6323 
-0.5271646738508787 0:6324 
-0.5484135542556153 0:6327 
-1 0:6333 
-1 0:6335 
-1 0:6337 
-1 0:6338 
-0.4415996620906235 0:6339 
-1 0:6340 
-1 0:6341 
-1 0:6346 
-0.9586679652207593 0:6348 
-0.07883764885318212 0:6353 
-0.1601061174491093 0:6354 
-1 0:6355 
-1 0:6357 
-1 0:6360 
-1 0:6365 
-1 0:6366 
-1 0:6370 
-0.8603033403825016 0:6371 
-1 0:6372 
-0.6565541067506766 0:6373 
-1 0:6377 
-0.09985521619124456 0:6379 
-1 0:6380 
-0.1796340668266927 0:6381 
-0.2456682945075257 0:6382 
-1 0:6386 
-1 0:6387 
-1 0:6390 
-0.8389151007311558 0:6391 
-1 0:6392 
-1 0:6394 
-0.4189435820258405 0:6398 
-0.419527952614947 0:6400 
-1 0:6401 
-0.9404820374671338 0:6403 
-1 0:6406 
-1 0:6407 
-1 0:6412 
-1 0:6415 
-1 0:6416 
-0.1671302394644909 0:6417 
-1 0:6418 
-1 0:6419 
-0.5607610250322497 0:6420 
-0.0307169993294626 0:6424 
-1 0:6427 
-1 0:6429 
-1 0:6431 
-1 0:6434 
-1 0:6435 
-1 0:6436 
-1 0:6437 
-1 0:6438 
-0.6158113049932966 0:6440 
-1 0:6442 
-0.7125574406492325 0:6444 
-1 0:6448 
-0.2182270215915264 0:6457 
-0.4018319688867445 0:6459 
-0.1232778460708417 0:6461 
-0.4585039905405213 0:6463 
-0.6602598839548217 0:6464 
-1 0:6468 
-0.6277988378976737 0:6470 
-1 0:6471 
-1 0:6475 
-0.8045792073931535 0:6476 
-1 0:6477 
-1 0:6480 
-1 0:6481 
-0.5651235486140139 0:6489 
-1 0:6493 
-1 0:6499 
-0.7008535770937094 0:6500 
-0.7679108050839676 0:6502 
-0.041077926872617 0:6503 
-1 0:6504 
-1 0:6505 
-0.2443076140371376 0:6509 
-1 0:6510 
-1 0:6511 
-0.6909898486757804 0:6514 
-1 0:6516 
-1 0:6518 
-1 0:6519 
-0.8938897076487232 0:6521 
-0.02261377525454521 0:6523 
-0.996079067593732 0:6524 
-1 0:6528 
-0.6207342214351285 0:6529 
-0.5091653167588053 0:6531 
-1 0:6533 
-0.2171829877658478 0:6534 
-1 0:6535 
-0.6422667937200488 0:6537 
-0.9350794124378439 0:6538 
-0.7133868692070962 0:6541 
-0.8025342552042394 0:6543 
-0.5634995816437274 0:6548 
-1 0:6549 
-1 0:6550 
-0.4232083608849165 0:6553 
